{"learner":{"attributes":{"scikit_learn":"{\"_estimator_type\": \"classifier\"}"},"feature_names":["sp500_chg","nasdaq_chg","dow_chg","vix_level","vix_chg","dxy_chg","gold_chg","crude_chg","coal_chg","xlf_chg","xlk_chg","xle_chg","xlb_chg","xly_chg","xli_chg","xlp_chg","eem_chg","ashr_chg","us10y_level","us10y_chg","risk_appetite","fear_greed_proxy","ret_1d","ret_3d","ret_5d","ret_20d","vol_ratio","volatility_20d","above_ma5","above_ma20"],"feature_types":["float","float","float","float","float","float","float","float","float","float","float","float","float","float","float","float","float","float","float","float","float","float","float","float","float","float","float","float","int","int"],"gradient_booster":{"model":{"cats":{"enc":[],"feature_segments":[],"sorted_idx":[]},"gbtree_model_param":{"num_parallel_tree":"1","num_trees":"300"},"iteration_indptr":[0,1,2,3,4,5,6,7,8,9,10,11,12,13,14,15,16,17,18,19,20,21,22,23,24,25,26,27,28,29,30,31,32,33,34,35,36,37,38,39,40,41,42,43,44,45,46,47,48,49,50,51,52,53,54,55,56,57,58,59,60,61,62,63,64,65,66,67,68,69,70,71,72,73,74,75,76,77,78,79,80,81,82,83,84,85,86,87,88,89,90,91,92,93,94,95,96,97,98,99,100,101,102,103,104,105,106,107,108,109,110,111,112,113,114,115,116,117,118,119,120,121,122,123,124,125,126,127,128,129,130,131,132,133,134,135,136,137,138,139,140,141,142,143,144,145,146,147,148,149,150,151,152,153,154,155,156,157,158,159,160,161,162,163,164,165,166,167,168,169,170,171,172,173,174,175,176,177,178,179,180,181,182,183,184,185,186,187,188,189,190,191,192,193,194,195,196,197,198,199,200,201,202,203,204,205,206,207,208,209,210,211,212,213,214,215,216,217,218,219,220,221,222,223,224,225,226,227,228,229,230,231,232,233,234,235,236,237,238,239,240,241,242,243,244,245,246,247,248,249,250,251,252,253,254,255,256,257,258,259,260,261,262,263,264,265,266,267,268,269,270,271,272,273,274,275,276,277,278,279,280,281,282,283,284,285,286,287,288,289,290,291,292,293,294,295,296,297,298,299,300],"tree_info":[0,0,0,0,0,0,0,0,0,0,0,0,0,0,0,0,0,0,0,0,0,0,0,0,0,0,0,0,0,0,0,0,0,0,0,0,0,0,0,0,0,0,0,0,0,0,0,0,0,0,0,0,0,0,0,0,0,0,0,0,0,0,0,0,0,0,0,0,0,0,0,0,0,0,0,0,0,0,0,0,0,0,0,0,0,0,0,0,0,0,0,0,0,0,0,0,0,0,0,0,0,0,0,0,0,0,0,0,0,0,0,0,0,0,0,0,0,0,0,0,0,0,0,0,0,0,0,0,0,0,0,0,0,0,0,0,0,0,0,0,0,0,0,0,0,0,0,0,0,0,0,0,0,0,0,0,0,0,0,0,0,0,0,0,0,0,0,0,0,0,0,0,0,0,0,0,0,0,0,0,0,0,0,0,0,0,0,0,0,0,0,0,0,0,0,0,0,0,0,0,0,0,0,0,0,0,0,0,0,0,0,0,0,0,0,0,0,0,0,0,0,0,0,0,0,0,0,0,0,0,0,0,0,0,0,0,0,0,0,0,0,0,0,0,0,0,0,0,0,0,0,0,0,0,0,0,0,0,0,0,0,0,0,0,0,0,0,0,0,0,0,0,0,0,0,0,0,0,0,0,0,0,0,0,0,0,0,0,0,0,0,0,0,0,0,0,0,0,0,0],"trees":[{"base_weights":[-1.7715014E-3,-9.520629E-1,4.168893E-1,-1.492586E0,-6.120079E-1,2.8129098E-1,1.1205336E0,-1.7830222E0,-1.2566752E0,-6.635977E-2,-7.0038325E-1,7.4038637E-1,1.3551949E-1,7.872365E-1,1.2800524E0,-1.8506535E0,-1.2749243E0,-1.3681643E0,-1.0043153E0,-3.7391242E-1,1.4528199E-1,-7.6196665E-1,1.55128E-1,4.644891E-1,8.293933E-1,-1.4024363E-1,3.1718484E-1,-9.050467E-1,8.005662E-1,1.381719E0,1.039628E0,-9.657525E-2,-8.356054E-2,-6.799111E-2,5.0938934E-2,-4.864857E-2,-7.1586445E-2,-5.4590363E-2,-3.095528E-2,-3.3447505E-3,-2.985442E-2,-8.9024E-3,1.5840417E-2,-4.331988E-2,-2.7309978E-2,-8.738973E-3,2.4341987E-2,-7.5830095E-2,2.4814414E-2,3.8540345E-2,5.9717547E-2,-1.5213596E-2,3.394032E-3,-4.06837E-3,2.2999944E-2,-1.7796146E-2,-1.0236024E-1,3.6020562E-2,5.0930183E-2,6.2216993E-2,7.7664815E-2,4.1240107E-2,5.7420243E-2],"categories":[],"categories_nodes":[],"categories_segments":[],"categories_sizes":[],"default_left":[0,0,0,0,0,0,0,0,0,0,0,0,0,0,0,0,0,0,0,0,0,0,0,0,0,0,0,0,0,0,0,0,0,0,0,0,0,0,0,0,0,0,0,0,0,0,0,0,0,0,0,0,0,0,0,0,0,0,0,0,0,0,0],"id":0,"left_children":[1,3,5,7,9,11,13,15,17,19,21,23,25,27,29,31,33,35,37,39,41,43,45,47,49,51,53,55,57,59,61,-1,-1,-1,-1,-1,-1,-1,-1,-1,-1,-1,-1,-1,-1,-1,-1,-1,-1,-1,-1,-1,-1,-1,-1,-1,-1,-1,-1,-1,-1,-1,-1],"loss_changes":[6.4832992E4,9.159273E3,1.0792799E4,1.3160586E3,1.4751318E3,6.3471655E3,9.705117E2,2.9364453E2,2.9726367E2,2.7772763E2,1.3873047E3,5.607832E2,3.6064873E3,1.3422778E2,3.0041406E2,1.0678516E2,1.9933215E2,1.8337207E2,1.089917E2,1.1906654E2,1.4023361E2,5.528096E2,1.9367203E2,3.5203784E2,3.6836426E2,9.7608093E2,2.4703374E3,2.8300121E1,1.0173584E2,2.0244727E2,8.47876E1,0E0,0E0,0E0,0E0,0E0,0E0,0E0,0E0,0E0,0E0,0E0,0E0,0E0,0E0,0E0,0E0,0E0,0E0,0E0,0E0,0E0,0E0,0E0,0E0,0E0,0E0,0E0,0E0,0E0,0E0,0E0,0E0],"parents":[2147483647,0,0,1,1,2,2,3,3,4,4,5,5,6,6,7,7,8,8,9,9,10,10,11,11,12,12,13,13,14,14,15,15,16,16,17,17,18,18,19,19,20,20,21,21,22,22,23,23,24,24,25,25,26,26,27,27,28,28,29,29,30,30],"right_children":[2,4,6,8,10,12,14,16,18,20,22,24,26,28,30,32,34,36,38,40,42,44,46,48,50,52,54,56,58,60,62,-1,-1,-1,-1,-1,-1,-1,-1,-1,-1,-1,-1,-1,-1,-1,-1,-1,-1,-1,-1,-1,-1,-1,-1,-1,-1,-1,-1,-1,-1,-1,-1],"split_conditions":[2.3053966E0,1.366184E0,1.1111111E1,9.151698E-1,-3.508772E0,-5.780347E0,1.7241379E1,9.6153843E-1,1.1277668E0,-5.3002555E-2,5.3333335E0,-2.878288E-1,3.5641184E0,1.5252845E-2,7.7966967E0,7.2011936E-1,9.886107E0,-1.9283746E0,2.189781E0,-9.259259E0,1.7378862E0,9.7725993E-1,7.142857E0,-4.504206E0,1.158222E0,7.6673067E-1,2.568338E-1,3.502027E-1,3.2727272E1,5.2941177E1,2.7272728E1,-9.657525E-2,-8.356054E-2,-6.799111E-2,5.0938934E-2,-4.864857E-2,-7.1586445E-2,-5.4590363E-2,-3.095528E-2,-3.3447505E-3,-2.985442E-2,-8.9024E-3,1.5840417E-2,-4.331988E-2,-2.7309978E-2,-8.738973E-3,2.4341987E-2,-7.5830095E-2,2.4814414E-2,3.8540345E-2,5.9717547E-2,-1.5213596E-2,3.394032E-3,-4.06837E-3,2.2999944E-2,-1.7796146E-2,-1.0236024E-1,3.6020562E-2,5.0930183E-2,6.2216993E-2,7.7664815E-2,4.1240107E-2,5.7420243E-2],"split_indices":[27,27,23,27,23,23,23,23,26,12,23,2,27,26,27,27,26,23,23,25,21,26,23,6,15,26,26,16,25,25,23,0,0,0,0,0,0,0,0,0,0,0,0,0,0,0,0,0,0,0,0,0,0,0,0,0,0,0,0,0,0,0,0],"split_type":[0,0,0,0,0,0,0,0,0,0,0,0,0,0,0,0,0,0,0,0,0,0,0,0,0,0,0,0,0,0,0,0,0,0,0,0,0,0,0,0,0,0,0,0,0,0,0,0,0,0,0,0,0,0,0,0,0,0,0,0,0,0,0],"sum_hessian":[1.6295634E5,4.9835926E4,1.13120414E5,1.9243838E4,3.059209E4,9.4844586E4,1.8275828E4,8.622033E3,1.0621804E4,4.2645747E3,2.6327516E4,2.2856174E4,7.1988414E4,5.917797E3,1.2358031E4,7.6066904E3,1.0153426E3,7.3637773E3,3.258027E3,1.7382697E3,2.5263052E3,2.455982E4,1.7676953E3,5.576838E3,1.7279336E4,2.8589697E4,4.3398715E4,4.5667286E1,5.87213E3,8.681699E3,3.676332E3,5.236821E3,2.3698696E3,9.795373E2,3.5805305E1,1.0227892E3,6.340988E3,2.6532952E3,6.047318E2,7.324311E2,1.00583856E3,8.754487E2,1.6508566E3,1.6547414E4,8.012405E3,8.86344E2,8.8135126E2,8.731424E1,5.4895234E3,1.4892101E4,2.387235E3,1.5988642E4,1.2601056E4,1.144864E4,3.1950076E4,3.178497E1,1.3882317E1,4.2971675E3,1.5749622E3,4.8262417E3,3.8554578E3,1.2389673E3,2.4373647E3],"tree_param":{"num_deleted":"0","num_feature":"30","num_nodes":"63","size_leaf_vector":"1"}},{"base_weights":[-2.6308277E-4,-8.8763684E-1,4.0603444E-1,-1.4619159E0,-6.07802E-1,2.3799114E-1,1.0678582E0,-1.7347293E0,-1.2758799E0,1.419243E-1,-6.705231E-1,6.8558466E-1,6.288564E-2,8.243779E-1,1.3368516E0,-1.7958814E0,-1.1792798E0,-6.8382204E-1,-1.3224323E0,-1.3694815E-1,3.3962828E-1,-7.4917156E-1,-7.6578096E-2,8.032043E-1,4.546436E-1,-2.315698E-1,1.8540694E-1,3.802945E-1,9.065856E-1,1.4644027E0,9.27732E-1,-9.057685E-2,-4.3389298E-2,-7.30018E-2,-2.4558663E-2,-1.3737351E-2,-4.3953054E-2,-6.839015E-2,-4.1057725E-2,-2.4636423E-2,3.916884E-3,2.8120771E-2,1.9140383E-3,-4.9522396E-2,-3.1222377E-2,-1.7302133E-2,2.02878E-2,5.317039E-2,3.550331E-2,1.0703568E-2,2.7784834E-2,-2.1764528E-2,-5.1517207E-3,-8.967782E-3,1.4873857E-2,4.938732E-3,2.949788E-2,4.8376705E-2,2.420785E-2,6.324444E-2,7.6265015E-2,2.7454484E-2,5.133881E-2],"categories":[],"categories_nodes":[],"categories_segments":[],"categories_sizes":[],"default_left":[0,0,0,0,0,0,0,0,0,0,0,0,0,0,0,0,0,0,0,0,0,0,0,0,0,0,0,0,0,0,0,0,0,0,0,0,0,0,0,0,0,0,0,0,0,0,0,0,0,0,0,0,0,0,0,0,0,0,0,0,0,0,0],"id":1,"left_children":[1,3,5,7,9,11,13,15,17,19,21,23,25,27,29,31,33,35,37,39,41,43,45,47,49,51,53,55,57,59,61,-1,-1,-1,-1,-1,-1,-1,-1,-1,-1,-1,-1,-1,-1,-1,-1,-1,-1,-1,-1,-1,-1,-1,-1,-1,-1,-1,-1,-1,-1,-1,-1],"loss_changes":[5.8872434E4,8.240414E3,1.2456422E4,8.5020703E2,1.6216924E3,7.001002E3,1.4841191E3,2.2886719E2,2.7433203E2,1.4688033E2,1.4863418E3,6.8181836E2,2.3165215E3,4.342339E2,5.6061523E2,8.725E1,1.3014081E2,5.8003418E1,2.0934473E2,8.4729256E1,1.0456244E2,8.448447E2,4.8392532E2,4.0236328E2,2.0592859E2,4.9393933E2,1.8536556E3,1.0976947E2,2.5805078E2,9.755859E1,9.541699E1,0E0,0E0,0E0,0E0,0E0,0E0,0E0,0E0,0E0,0E0,0E0,0E0,0E0,0E0,0E0,0E0,0E0,0E0,0E0,0E0,0E0,0E0,0E0,0E0,0E0,0E0,0E0,0E0,0E0,0E0,0E0,0E0],"parents":[2147483647,0,0,1,1,2,2,3,3,4,4,5,5,6,6,7,7,8,8,9,9,10,10,11,11,12,12,13,13,14,14,15,15,16,16,17,17,18,18,19,19,20,20,21,21,22,22,23,23,24,24,25,25,26,26,27,27,28,28,29,29,30,30],"right_children":[2,4,6,8,10,12,14,16,18,20,22,24,26,28,30,32,34,36,38,40,42,44,46,48,50,52,54,56,58,60,62,-1,-1,-1,-1,-1,-1,-1,-1,-1,-1,-1,-1,-1,-1,-1,-1,-1,-1,-1,-1,-1,-1,-1,-1,-1,-1,-1,-1,-1,-1,-1,-1],"split_conditions":[2.3433263E0,1.2738107E0,5.102041E0,7.989362E-1,-2.8985507E0,-2.8985507E0,1.7391304E1,9.259259E-1,-1.7391304E0,0E0,4.5454545E0,-4.7058825E0,3.1961653E0,3.504716E0,1.1827957E1,9.886107E0,1.659813E0,-3.3333333E0,2.9411764E0,1.8844672E0,-4.2735043E0,1.6314614E0,2.9411764E0,-6.05042E0,-3.0971292E-1,4.8544863E-1,2.0456038E-1,6.4220185E0,1.1827957E1,1.875E1,2.2222221E1,-9.057685E-2,-4.3389298E-2,-7.30018E-2,-2.4558663E-2,-1.3737351E-2,-4.3953054E-2,-6.839015E-2,-4.1057725E-2,-2.4636423E-2,3.916884E-3,2.8120771E-2,1.9140383E-3,-4.9522396E-2,-3.1222377E-2,-1.7302133E-2,2.02878E-2,5.317039E-2,3.550331E-2,1.0703568E-2,2.7784834E-2,-2.1764528E-2,-5.1517207E-3,-8.967782E-3,1.4873857E-2,4.938732E-3,2.949788E-2,4.8376705E-2,2.420785E-2,6.324444E-2,7.6265015E-2,2.7454484E-2,5.133881E-2],"split_indices":[27,27,22,27,22,22,24,23,22,9,24,22,27,27,22,26,26,23,24,27,23,27,22,4,14,26,26,24,22,23,23,0,0,0,0,0,0,0,0,0,0,0,0,0,0,0,0,0,0,0,0,0,0,0,0,0,0,0,0,0,0,0,0],"split_type":[0,0,0,0,0,0,0,0,0,0,0,0,0,0,0,0,0,0,0,0,0,0,0,0,0,0,0,0,0,0,0,0,0,0,0,0,0,0,0,0,0,0,0,0,0,0,0,0,0,0,0,0,0,0,0,0,0,0,0,0,0,0,0],"sum_hessian":[1.6328848E5,5.1282984E4,1.120055E5,1.6800436E4,3.4482547E4,8.9326234E4,2.2679266E4,6.807979E3,9.992457E3,2.6618403E3,3.1820707E4,2.511792E4,6.4208312E4,1.1906496E4,1.0772769E4,6.130616E3,6.773627E2,7.29715E2,9.262742E3,1.1041611E3,1.5576793E3,2.8099436E4,3.7212715E3,1.6640107E4,8.4778125E3,1.8865982E4,4.534233E4,1.8608872E3,1.0045609E4,8.210241E3,2.5625278E3,6.0278755E3,1.02741196E2,4.8017712E2,1.9718555E2,2.3669618E2,4.9301883E2,8.492185E3,7.705577E2,4.159462E2,6.882149E2,8.948878E2,6.627915E2,9.572964E3,1.8526473E4,2.3877834E3,1.333488E3,4.3831743E3,1.2256933E4,2.5089587E3,5.968854E3,7.2972007E3,1.1568783E4,1.0656475E4,3.4685855E4,7.951575E2,1.0657297E3,8.777635E3,1.2679747E3,1.9254517E3,6.284789E3,5.328843E2,2.0296436E3],"tree_param":{"num_deleted":"0","num_feature":"30","num_nodes":"63","size_leaf_vector":"1"}},{"base_weights":[-1.7307203E-3,-8.223302E-1,3.9508605E-1,-1.3490183E0,-5.3777283E-1,2.6184002E-1,9.8894125E-1,-1.5872055E0,-1.1368065E0,-4.6328106E-3,-6.264514E-1,6.928061E-1,1.1685774E-1,7.3840207E-1,1.1933085E0,-1.6402142E0,-1.0108341E0,-6.923637E-1,-1.1937475E0,-3.3971238E-1,1.6742566E-1,-7.095481E-1,-5.9002012E-2,9.277198E-1,5.9710044E-1,-1.3020642E-1,2.5412166E-1,8.139522E-1,5.916492E-1,1.296119E0,9.1512495E-1,-5.1066425E-2,-8.31702E-2,-5.402084E-2,-6.741985E-3,-4.590981E-2,-1.4294492E-2,-6.2164586E-2,-3.745533E-2,-3.403747E-2,-4.999099E-3,2.634332E-2,8.211682E-4,-4.380938E-2,-2.9936826E-2,-1.1491705E-2,2.5216578E-2,5.360811E-2,3.4429103E-2,-1.4122585E-2,3.123569E-2,-2.6882589E-2,-3.8933884E-3,8.308707E-3,2.4159426E-2,3.8170587E-2,4.9435582E-2,1.8005772E-2,3.2901775E-2,5.7810273E-2,7.0825316E-2,-6.816802E-3,4.7801476E-2],"categories":[],"categories_nodes":[],"categories_segments":[],"categories_sizes":[],"default_left":[0,0,0,0,0,0,0,0,0,0,0,0,0,0,0,0,0,0,0,0,0,0,0,0,0,0,0,0,0,0,0,0,0,0,0,0,0,0,0,0,0,0,0,0,0,0,0,0,0,0,0,0,0,0,0,0,0,0,0,0,0,0,0],"id":2,"left_children":[1,3,5,7,9,11,13,15,17,19,21,23,25,27,29,31,33,35,37,39,41,43,45,47,49,51,53,55,57,59,61,-1,-1,-1,-1,-1,-1,-1,-1,-1,-1,-1,-1,-1,-1,-1,-1,-1,-1,-1,-1,-1,-1,-1,-1,-1,-1,-1,-1,-1,-1,-1,-1],"loss_changes":[5.306798E4,7.960418E3,8.691975E3,9.397031E2,1.6305293E3,5.605846E3,1.0296387E3,2.6620898E2,2.484375E2,2.8371466E2,1.3942344E3,5.0706348E2,2.2768743E3,9.9677246E1,3.1562402E2,1.1335156E2,4.4955383E1,1.02613464E2,1.9132031E2,1.3636124E2,1.7639447E2,4.7561523E2,3.6370667E2,2.248374E2,3.9003027E2,5.1124585E2,8.69343E2,5.178955E1,4.6980713E1,1.3438867E2,1.2902222E2,0E0,0E0,0E0,0E0,0E0,0E0,0E0,0E0,0E0,0E0,0E0,0E0,0E0,0E0,0E0,0E0,0E0,0E0,0E0,0E0,0E0,0E0,0E0,0E0,0E0,0E0,0E0,0E0,0E0,0E0,0E0,0E0],"parents":[2147483647,0,0,1,1,2,2,3,3,4,4,5,5,6,6,7,7,8,8,9,9,10,10,11,11,12,12,13,13,14,14,15,15,16,16,17,17,18,18,19,19,20,20,21,21,22,22,23,23,24,24,25,25,26,26,27,27,28,28,29,29,30,30],"right_children":[2,4,6,8,10,12,14,16,18,20,22,24,26,28,30,32,34,36,38,40,42,44,46,48,50,52,54,56,58,60,62,-1,-1,-1,-1,-1,-1,-1,-1,-1,-1,-1,-1,-1,-1,-1,-1,-1,-1,-1,-1,-1,-1,-1,-1,-1,-1,-1,-1,-1,-1,-1,-1],"split_conditions":[2.396833E0,1.3349591E0,9.62963E0,9.151698E-1,-3.508772E0,-5.780347E0,1.875E1,1.2987013E0,-2.3809524E0,-1.9307508E-1,4.6875E0,-4.7757697E0,3.476219E0,1.793E1,8.069055E0,-2.7322397E0,3.7209303E0,5.1772505E-1,2.9411764E0,-4.8971567E-1,-6.329114E0,1.7322601E0,7.4468083E0,-9.210526E0,-1.9829377E0,-8.4397787E-1,3.0898898E0,2.1333334E1,4.03398E0,3.3333332E1,3.6764705E0,-5.1066425E-2,-8.31702E-2,-5.402084E-2,-6.741985E-3,-4.590981E-2,-1.4294492E-2,-6.2164586E-2,-3.745533E-2,-3.403747E-2,-4.999099E-3,2.634332E-2,8.211682E-4,-4.380938E-2,-2.9936826E-2,-1.1491705E-2,2.5216578E-2,5.360811E-2,3.4429103E-2,-1.4122585E-2,3.123569E-2,-2.6882589E-2,-3.8933884E-3,8.308707E-3,2.4159426E-2,3.8170587E-2,4.9435582E-2,1.8005772E-2,3.2901775E-2,5.7810273E-2,7.0825316E-2,-6.816802E-3,4.7801476E-2],"split_indices":[27,27,23,27,23,23,23,23,23,12,24,4,27,3,27,24,23,9,24,16,23,27,23,24,16,16,23,24,27,24,24,0,0,0,0,0,0,0,0,0,0,0,0,0,0,0,0,0,0,0,0,0,0,0,0,0,0,0,0,0,0,0,0],"split_type":[0,0,0,0,0,0,0,0,0,0,0,0,0,0,0,0,0,0,0,0,0,0,0,0,0,0,0,0,0,0,0,0,0,0,0,0,0,0,0,0,0,0,0,0,0,0,0,0,0,0,0,0,0,0,0,0,0,0,0,0,0,0,0],"sum_hessian":[1.6296925E5,5.311955E4,1.09849695E5,1.8631096E4,3.4488457E4,8.9720336E4,2.0129355E4,8.775029E3,9.856066E3,4.918764E3,2.9569691E4,2.2583986E4,6.713635E4,9.045428E3,1.1083929E4,8.034115E3,7.409142E2,1.1210254E3,8.735041E3,1.6686729E3,3.2500916E3,2.5792268E4,3.7774229E3,6.534657E3,1.6049328E4,2.3977707E4,4.315864E4,5.967869E3,3.0775583E3,8.090016E3,2.9939126E3,2.9194846E2,7.7421665E3,6.860702E2,5.484401E1,7.19676E2,4.0134933E2,7.8574966E3,8.7754443E2,6.8786664E2,9.808062E2,9.605293E2,2.2895623E3,1.0298095E4,1.5494174E4,2.8990496E3,8.783733E2,4.071509E3,2.4631482E3,4.881359E2,1.5561192E4,2.7281843E3,2.1249523E4,3.1186943E4,1.1971699E4,4.633733E3,1.3341362E3,6.875477E2,2.3900105E3,3.7468628E3,4.3431533E3,1.119306E2,2.881982E3],"tree_param":{"num_deleted":"0","num_feature":"30","num_nodes":"63","size_leaf_vector":"1"}},{"base_weights":[2.6049593E-3,-6.9467235E-1,4.230997E-1,-1.1695019E0,-3.7273216E-1,2.624074E-1,1.0063269E0,-1.5127914E0,-9.831876E-1,3.3553463E-1,-4.4812855E-1,6.3675725E-1,1.0455113E-1,7.95609E-1,1.2583802E0,-1.5600791E0,-8.0175966E-1,-1.1139871E0,-7.6137424E-1,5.93289E-1,1.9887246E-1,-5.215357E-1,6.058949E-3,7.5365716E-1,4.5083576E-1,-2.4937817E-1,2.0422983E-1,7.0765465E-1,1.1313977E0,1.3951657E0,8.5956246E-1,-2.4885034E-2,-7.882411E-2,-4.7684636E-2,5.0743658E-2,-3.770187E-2,-5.9032004E-2,-4.2771425E-2,-1.6189348E-2,-6.7843005E-2,3.2824103E-2,-2.030089E-3,1.7843945E-2,-8.547896E-3,-2.9753137E-2,-8.722799E-3,2.1025384E-2,3.304467E-2,5.070001E-2,1.13121895E-2,2.5823865E-2,1.0289408E-2,-2.0338824E-2,1.1635112E-3,1.5588787E-2,5.5787086E-2,3.205944E-2,5.945905E-2,3.239937E-2,7.381662E-2,6.4622805E-2,2.234753E-2,4.698251E-2],"categories":[],"categories_nodes":[],"categories_segments":[],"categories_sizes":[],"default_left":[0,0,0,0,0,0,0,0,0,0,0,0,0,0,0,0,0,0,0,0,0,0,0,0,0,0,0,0,0,0,0,0,0,0,0,0,0,0,0,0,0,0,0,0,0,0,0,0,0,0,0,0,0,0,0,0,0,0,0,0,0,0,0],"id":3,"left_children":[1,3,5,7,9,11,13,15,17,19,21,23,25,27,29,31,33,35,37,39,41,43,45,47,49,51,53,55,57,59,61,-1,-1,-1,-1,-1,-1,-1,-1,-1,-1,-1,-1,-1,-1,-1,-1,-1,-1,-1,-1,-1,-1,-1,-1,-1,-1,-1,-1,-1,-1,-1,-1],"loss_changes":[4.7751887E4,9.365193E3,9.521213E3,1.5815898E3,1.9500186E3,4.706779E3,1.1643438E3,2.9125977E2,4.6460352E2,1.2356436E2,1.100335E3,5.1300977E2,1.9766732E3,3.5211084E2,5.43583E2,1.412539E2,1.5142099E2,2.4107617E2,2.4476953E2,1.507515E2,8.699183E1,7.3213916E2,3.436774E2,3.4941797E2,1.3430396E2,8.821793E2,8.50754E2,2.5615918E2,6.831006E1,5.9816406E1,8.384619E1,0E0,0E0,0E0,0E0,0E0,0E0,0E0,0E0,0E0,0E0,0E0,0E0,0E0,0E0,0E0,0E0,0E0,0E0,0E0,0E0,0E0,0E0,0E0,0E0,0E0,0E0,0E0,0E0,0E0,0E0,0E0,0E0],"parents":[2147483647,0,0,1,1,2,2,3,3,4,4,5,5,6,6,7,7,8,8,9,9,10,10,11,11,12,12,13,13,14,14,15,15,16,16,17,17,18,18,19,19,20,20,21,21,22,22,23,23,24,24,25,25,26,26,27,27,28,28,29,29,30,30],"right_children":[2,4,6,8,10,12,14,16,18,20,22,24,26,28,30,32,34,36,38,40,42,44,46,48,50,52,54,56,58,60,62,-1,-1,-1,-1,-1,-1,-1,-1,-1,-1,-1,-1,-1,-1,-1,-1,-1,-1,-1,-1,-1,-1,-1,-1,-1,-1,-1,-1,-1,-1,-1,-1],"split_conditions":[2.666044E0,1.5431842E0,5.102041E0,9.151698E-1,-2.9850745E0,-2.8985507E0,1.7241379E1,1.010101E0,9.861786E-1,-4.7058825E0,4.6875E0,-4.516129E0,2.0456038E-1,3.6363636E1,1.1827957E1,-1.8181819E0,8.276487E0,-1.9283746E0,1.6483479E0,-9.803922E0,-1.829492E-2,-2.9411764E0,3.5714285E0,6.846468E0,-5.120894E-1,-2.9411764E0,3.7229087E0,-2.2560976E1,1.1827957E1,1.5595162E0,2.2222221E1,-2.4885034E-2,-7.882411E-2,-4.7684636E-2,5.0743658E-2,-3.770187E-2,-5.9032004E-2,-4.2771425E-2,-1.6189348E-2,-6.7843005E-2,3.2824103E-2,-2.030089E-3,1.7843945E-2,-8.547896E-3,-2.9753137E-2,-8.722799E-3,2.1025384E-2,3.304467E-2,5.070001E-2,1.13121895E-2,2.5823865E-2,1.0289408E-2,-2.0338824E-2,1.1635112E-3,1.5588787E-2,5.5787086E-2,3.205944E-2,5.945905E-2,3.239937E-2,7.381662E-2,6.4622805E-2,2.234753E-2,4.698251E-2],"split_indices":[27,27,22,27,22,22,23,22,26,22,24,23,26,25,22,22,26,23,22,22,9,23,22,21,14,23,27,25,22,26,23,0,0,0,0,0,0,0,0,0,0,0,0,0,0,0,0,0,0,0,0,0,0,0,0,0,0,0,0,0,0,0,0],"split_type":[0,0,0,0,0,0,0,0,0,0,0,0,0,0,0,0,0,0,0,0,0,0,0,0,0,0,0,0,0,0,0,0,0,0,0,0,0,0,0,0,0,0,0,0,0,0,0,0,0,0,0,0,0,0,0,0,0,0,0,0,0,0,0],"sum_hessian":[1.6286184E5,6.1266668E4,1.01595164E5,2.4754025E4,3.6512645E4,7.96511E4,2.1944064E4,8.705754E3,1.6048271E4,3.51243E3,3.3000215E4,2.3624016E4,5.6027086E4,1.1954551E4,9.989514E3,8.1616245E3,5.4412915E2,1.0092456E4,5.9558154E3,1.2156174E3,2.2968125E3,2.8408775E4,4.5914375E3,1.4502095E4,9.121921E3,1.2311197E4,4.371589E4,9.4759E3,2.4786504E3,7.436286E3,2.5532273E3,1.2466789E2,8.0369565E3,5.0262265E2,4.150648E1,1.5790195E3,8.513437E3,4.901181E3,1.054634E3,3.7462517E1,1.1781549E3,9.1307227E2,1.3837402E3,4.9260415E3,2.3482734E4,3.198608E3,1.3928296E3,1.069518E4,3.8069158E3,2.0644365E3,7.0574844E3,3.163116E3,9.148081E3,1.62967295E4,2.741916E4,1.3247736E3,8.1511265E3,2.212516E3,2.6613437E2,4.1457417E3,3.2905447E3,4.162964E2,2.136931E3],"tree_param":{"num_deleted":"0","num_feature":"30","num_nodes":"63","size_leaf_vector":"1"}},{"base_weights":[-4.549828E-3,-7.7528894E-1,3.4700394E-1,-1.2681227E0,-5.311132E-1,1.9659644E-1,9.4830644E-1,-1.5656742E0,-1.1427705E0,1.336687E-1,-5.8560586E-1,6.040234E-1,3.8695894E-2,7.3610204E-1,1.2108198E0,-1.5934373E0,-6.061196E-1,-5.8495396E-1,-1.1765292E0,-3.2547656E-2,4.5459253E-1,-6.498055E-1,-5.0706953E-2,7.134495E-1,3.903794E-1,-2.0790768E-1,1.4478728E-1,6.134811E-1,9.7733796E-1,1.3422455E0,8.319036E-1,-5.9616654E-3,-8.017761E-2,-4.2363614E-2,5.281324E-2,-3.645402E-2,8.8255806E-4,-6.1069217E-2,-3.9132975E-2,1.5197563E-2,-8.424822E-3,3.6259875E-2,1.2200391E-2,-1.1694017E-2,-3.4883212E-2,-1.2740627E-2,2.1331139E-2,3.13963E-2,4.796622E-2,2.02791E-2,-4.4891115E-2,-1.7610392E-2,-2.137799E-3,-1.0890527E-2,1.2313165E-2,4.9922485E-2,2.5340302E-2,5.1798295E-2,2.3070175E-2,7.2038226E-2,6.2590756E-2,1.48069365E-2,4.4870313E-2],"categories":[],"categories_nodes":[],"categories_segments":[],"categories_sizes":[],"default_left":[0,0,0,0,0,0,0,0,0,0,0,0,0,0,0,0,0,0,0,0,0,0,0,0,0,0,0,0,0,0,0,0,0,0,0,0,0,0,0,0,0,0,0,0,0,0,0,0,0,0,0,0,0,0,0,0,0,0,0,0,0,0,0],"id":4,"left_children":[1,3,5,7,9,11,13,15,17,19,21,23,25,27,29,31,33,35,37,39,41,43,45,47,49,51,53,55,57,59,61,-1,-1,-1,-1,-1,-1,-1,-1,-1,-1,-1,-1,-1,-1,-1,-1,-1,-1,-1,-1,-1,-1,-1,-1,-1,-1,-1,-1,-1,-1,-1,-1],"loss_changes":[4.3939293E4,6.1119824E3,1.0071726E4,6.25625E2,1.2306982E3,5.7310034E3,1.2402012E3,1.316211E2,2.2217969E2,1.373738E2,1.0780596E3,5.8130566E2,1.6797616E3,3.6381543E2,4.946084E2,7.187207E1,5.775919E1,5.8974976E1,1.9613574E2,7.7651886E1,4.9794662E1,5.5773535E2,3.279973E2,3.4520703E2,1.6541174E2,4.6019714E2,1.6518627E3,3.3503174E2,1.2494849E2,6.3786133E1,8.971777E1,0E0,0E0,0E0,0E0,0E0,0E0,0E0,0E0,0E0,0E0,0E0,0E0,0E0,0E0,0E0,0E0,0E0,0E0,0E0,0E0,0E0,0E0,0E0,0E0,0E0,0E0,0E0,0E0,0E0,0E0,0E0,0E0],"parents":[2147483647,0,0,1,1,2,2,3,3,4,4,5,5,6,6,7,7,8,8,9,9,10,10,11,11,12,12,13,13,14,14,15,15,16,16,17,17,18,18,19,19,20,20,21,21,22,22,23,23,24,24,25,25,26,26,27,27,28,28,29,29,30,30],"right_children":[2,4,6,8,10,12,14,16,18,20,22,24,26,28,30,32,34,36,38,40,42,44,46,48,50,52,54,56,58,60,62,-1,-1,-1,-1,-1,-1,-1,-1,-1,-1,-1,-1,-1,-1,-1,-1,-1,-1,-1,-1,-1,-1,-1,-1,-1,-1,-1,-1,-1,-1,-1,-1],"split_conditions":[2.325532E0,1.2738107E0,5.102041E0,6.5571856E-1,-2.8985507E0,-2.8985507E0,1.7241379E1,9.8039216E-1,-1.8181819E0,5.5832416E-1,3.8461537E0,-4.7058825E0,3.1961653E0,2E1,1.1827957E1,-2.4390244E0,9.886107E0,7.6296744E0,1.3071896E0,-4.7058825E0,-5.2941175E0,-3.508772E0,6.8702292E0,6.846468E0,7.2604384E0,6.858614E-1,1.9036652E-1,-1.71875E1,1.1827957E1,1.2299548E0,5.547909E0,-5.9616654E-3,-8.017761E-2,-4.2363614E-2,5.281324E-2,-3.645402E-2,8.8255806E-4,-6.1069217E-2,-3.9132975E-2,1.5197563E-2,-8.424822E-3,3.6259875E-2,1.2200391E-2,-1.1694017E-2,-3.4883212E-2,-1.2740627E-2,2.1331139E-2,3.13963E-2,4.796622E-2,2.02791E-2,-4.4891115E-2,-1.7610392E-2,-2.137799E-3,-1.0890527E-2,1.2313165E-2,4.9922485E-2,2.5340302E-2,5.1798295E-2,2.3070175E-2,7.2038226E-2,6.2590756E-2,1.48069365E-2,4.4870313E-2],"split_indices":[27,27,22,27,22,22,23,22,22,9,23,22,27,25,22,23,26,21,22,22,23,23,23,21,7,26,26,25,22,26,27,0,0,0,0,0,0,0,0,0,0,0,0,0,0,0,0,0,0,0,0,0,0,0,0,0,0,0,0,0,0,0,0],"split_type":[0,0,0,0,0,0,0,0,0,0,0,0,0,0,0,0,0,0,0,0,0,0,0,0,0,0,0,0,0,0,0,0,0,0,0,0,0,0,0,0,0,0,0,0,0,0,0,0,0,0,0,0,0,0,0,0,0,0,0,0,0,0,0],"sum_hessian":[1.6216166E5,5.0796203E4,1.1136545E5,1.6827566E4,3.396864E4,8.908386E4,2.2281598E4,4.984189E3,1.1843377E4,2.5732332E3,3.1395406E4,2.4880877E4,6.420298E4,1.2323777E4,9.95782E3,4.8432915E3,1.4089766E2,6.7706683E2,1.116631E4,1.6956108E3,8.776223E2,2.8030703E4,3.3647024E3,1.6451693E4,8.429183E3,1.931182E4,4.489116E4,8.173249E3,4.150529E3,7.391352E3,2.5664683E3,3.3159122E1,4.8101323E3,1.2352856E2,1.736911E1,5.46351E2,1.3071584E2,1.0022557E4,1.1437534E3,4.8735178E2,1.2082592E3,3.8279962E2,4.948227E2,2.8933672E3,2.5137336E4,2.3573699E3,1.0073326E3,1.2208969E4,4.2427256E3,8.33162E3,9.756205E1,1.030562E4,9.0062E3,9.815593E3,3.5075566E4,1.7713853E3,6.401864E3,3.7259321E3,4.2459665E2,3.5297942E3,3.861558E3,2.803612E2,2.286107E3],"tree_param":{"num_deleted":"0","num_feature":"30","num_nodes":"63","size_leaf_vector":"1"}},{"base_weights":[2.109101E-3,-8.055956E-1,3.0500922E-1,-1.2708024E0,-5.843665E-1,1.8345784E-1,8.467769E-1,-1.4721799E0,-1.1377455E0,-1.0333002E-1,-6.42387E-1,5.579893E-1,2.6906027E-2,6.305448E-1,1.062526E0,-1.5313663E0,-9.024517E-1,-1.1994418E0,-9.07117E-1,-2.1274966E-1,4.259502E-1,-7.0434237E-1,-2.00568E-1,2.7999833E-1,6.2868714E-1,-1.9272427E-1,1.7552762E-1,5.337073E-1,8.494575E-1,1.1587386E0,8.0445635E-1,-4.848557E-2,-7.733115E-2,-4.734516E-2,6.216537E-2,-3.339066E-2,-6.2188085E-2,-4.6608828E-2,3.339068E-2,-2.239603E-3,-2.1816287E-2,-1.590446E-3,5.0133653E-2,-4.1797955E-2,-2.7404323E-2,-1.5749685E-2,1.973208E-2,1.5649742E-2,-7.859763E-2,2.960742E-2,5.5601288E-2,-1.3187284E-2,2.404127E-3,4.9699857E-3,1.8767111E-2,4.2461902E-2,2.4649039E-2,4.5490813E-2,3.193631E-2,5.0594885E-2,6.393218E-2,-9.237701E-3,4.2159755E-2],"categories":[],"categories_nodes":[],"categories_segments":[],"categories_sizes":[],"default_left":[0,0,0,0,0,0,0,0,0,0,0,0,0,0,0,0,0,0,0,0,0,0,0,0,0,0,0,0,0,0,0,0,0,0,0,0,0,0,0,0,0,0,0,0,0,0,0,0,0,0,0,0,0,0,0,0,0,0,0,0,0,0,0],"id":5,"left_children":[1,3,5,7,9,11,13,15,17,19,21,23,25,27,29,31,33,35,37,39,41,43,45,47,49,51,53,55,57,59,61,-1,-1,-1,-1,-1,-1,-1,-1,-1,-1,-1,-1,-1,-1,-1,-1,-1,-1,-1,-1,-1,-1,-1,-1,-1,-1,-1,-1,-1,-1,-1,-1],"loss_changes":[3.9643832E4,4.5473965E3,7.760258E3,3.7967578E2,8.358418E2,5.643589E3,1.0065928E3,1.8931934E2,1.2079297E2,1.8685823E2,7.3141113E2,5.573594E2,2.2157903E3,2.2810156E2,2.6722266E2,4.219043E1,5.222458E1,1.5839941E2,7.229724E1,1.0032866E2,1.4604788E2,4.8148438E2,2.2410342E2,3.5203168E2,3.9863965E2,4.685738E2,6.157655E2,9.5599365E1,4.1321533E1,1.370459E2,1.128313E2,0E0,0E0,0E0,0E0,0E0,0E0,0E0,0E0,0E0,0E0,0E0,0E0,0E0,0E0,0E0,0E0,0E0,0E0,0E0,0E0,0E0,0E0,0E0,0E0,0E0,0E0,0E0,0E0,0E0,0E0,0E0,0E0],"parents":[2147483647,0,0,1,1,2,2,3,3,4,4,5,5,6,6,7,7,8,8,9,9,10,10,11,11,12,12,13,13,14,14,15,15,16,16,17,17,18,18,19,19,20,20,21,21,22,22,23,23,24,24,25,25,26,26,27,27,28,28,29,29,30,30],"right_children":[2,4,6,8,10,12,14,16,18,20,22,24,26,28,30,32,34,36,38,40,42,44,46,48,50,52,54,56,58,60,62,-1,-1,-1,-1,-1,-1,-1,-1,-1,-1,-1,-1,-1,-1,-1,-1,-1,-1,-1,-1,-1,-1,-1,-1,-1,-1,-1,-1,-1,-1,-1,-1],"split_conditions":[2.1305022E0,1.1770631E0,8.823529E0,7.2011936E-1,-3.6697247E0,-4.516129E0,1.875E1,7.8740156E-1,1.0362694E0,8.5523397E-1,4E0,-5.904409E-1,3.3311896E0,2.9545454E1,8.069055E0,-1.8518518E0,4.6399837E0,-3.4146342E0,5.8823576E0,5.7529543E-2,1.0507685E0,1.6892436E0,7.142857E0,1.4589314E0,2.515E1,3.6764705E0,3.0898898E0,-1.7741936E1,7.7966967E0,4.3065693E1,3.6764705E0,-4.848557E-2,-7.733115E-2,-4.734516E-2,6.216537E-2,-3.339066E-2,-6.2188085E-2,-4.6608828E-2,3.339068E-2,-2.239603E-3,-2.1816287E-2,-1.590446E-3,5.0133653E-2,-4.1797955E-2,-2.7404323E-2,-1.5749685E-2,1.973208E-2,1.5649742E-2,-7.859763E-2,2.960742E-2,5.5601288E-2,-1.3187284E-2,2.404127E-3,4.9699857E-3,1.8767111E-2,4.2461902E-2,2.4649039E-2,4.5490813E-2,3.193631E-2,5.0594885E-2,6.393218E-2,-9.237701E-3,4.2159755E-2],"split_indices":[27,27,23,27,23,23,23,23,23,2,24,12,27,25,27,23,8,24,23,5,15,27,23,15,3,24,23,25,27,25,24,0,0,0,0,0,0,0,0,0,0,0,0,0,0,0,0,0,0,0,0,0,0,0,0,0,0,0,0,0,0,0,0],"split_type":[0,0,0,0,0,0,0,0,0,0,0,0,0,0,0,0,0,0,0,0,0,0,0,0,0,0,0,0,0,0,0,0,0,0,0,0,0,0,0,0,0,0,0,0,0,0,0,0,0,0,0,0,0,0,0,0,0,0,0,0,0,0,0],"sum_hessian":[1.6203872E5,4.4192992E4,1.17845734E5,1.424113E4,2.9951861E4,9.625207E4,2.159366E4,5.661622E3,8.579508E3,3.2243008E3,2.672756E4,2.8372074E4,6.788E4,1.0786946E4,1.0806714E4,5.127125E3,5.3449713E2,6.7651123E3,1.8143956E3,2.672578E3,5.5172284E2,2.343982E4,3.2877393E3,5.753828E3,2.2618246E4,2.7395078E4,4.048492E4,7.481396E3,3.3055503E3,7.869103E3,2.9376113E3,1.3746736E2,4.9896577E3,5.2424225E2,1.0254881E1,5.219927E2,6.2431196E3,1.7864423E3,2.7953388E1,1.5270533E3,1.1455245E3,3.080151E2,2.4370773E2,1.2720314E4,1.0719506E4,2.7581409E3,5.295983E2,5.653975E3,9.9852806E1,2.103082E4,1.5874253E3,2.1155875E4,6.239203E3,2.9317258E4,1.1167663E4,8.527058E2,6.6286904E3,2.5666152E3,7.3893506E2,3.5418594E3,4.3272437E3,1.10465935E2,2.8271455E3],"tree_param":{"num_deleted":"0","num_feature":"30","num_nodes":"63","size_leaf_vector":"1"}},{"base_weights":[1.4559738E-3,-6.044721E-1,3.6896116E-1,-1.066148E0,-3.5442674E-1,2.509482E-1,8.403425E-1,-1.3292416E0,-8.908149E-1,1.67804E-2,-4.464508E-1,5.5381465E-1,1.0667471E-1,6.288365E-1,1.0278318E0,-1.3936777E0,-9.226482E-1,-1.0064697E0,-6.948929E-1,-3.024778E-1,1.07736066E-1,-5.2777994E-1,2.8634586E-3,7.722154E-1,4.666796E-1,-4.723193E-1,1.6313255E-1,-6.6569996E-1,6.448863E-1,1.129386E0,8.1115276E-1,-3.838938E-2,-7.093462E-2,-5.2053507E-2,5.464501E-3,-3.4657285E-2,-5.2969556E-2,5.5561583E-3,-3.700938E-2,-3.9661467E-2,-1.0497318E-2,1.7646031E-2,-1.9392109E-3,-3.0112056E-2,-1.5717404E-2,-7.3747854E-3,1.7340356E-2,3.254308E-2,5.828842E-2,-2.4155846E-2,2.4169592E-2,-4.1444767E-2,-1.5259142E-2,6.889657E-4,1.7148431E-2,-5.8989942E-2,8.178343E-3,3.5693083E-2,2.5733346E-2,4.9798317E-2,6.2453993E-2,-1.0070306E-3,4.2558834E-2],"categories":[],"categories_nodes":[],"categories_segments":[],"categories_sizes":[],"default_left":[0,0,0,0,0,0,0,0,0,0,0,0,0,0,0,0,0,0,0,0,0,0,0,0,0,0,0,0,0,0,0,0,0,0,0,0,0,0,0,0,0,0,0,0,0,0,0,0,0,0,0,0,0,0,0,0,0,0,0,0,0,0,0],"id":6,"left_children":[1,3,5,7,9,11,13,15,17,19,21,23,25,27,29,31,33,35,37,39,41,43,45,47,49,51,53,55,57,59,61,-1,-1,-1,-1,-1,-1,-1,-1,-1,-1,-1,-1,-1,-1,-1,-1,-1,-1,-1,-1,-1,-1,-1,-1,-1,-1,-1,-1,-1,-1,-1,-1],"loss_changes":[3.5953188E4,7.036127E3,5.5904375E3,9.8641797E2,1.3507935E3,3.5120913E3,7.9714355E2,2.2279199E2,2.903877E2,2.2813751E2,1.15796E3,4.9305908E2,1.7798054E3,1.9694458E2,2.3356836E2,1.1436719E2,1.4372247E2,1.3306934E2,1.7446289E2,7.8832886E1,2.1972595E2,4.2611865E2,2.5126529E2,3.522085E2,2.9454297E2,2.8792834E2,1.3324182E3,4.985305E1,8.34292E1,1.14450195E2,1.1346509E2,0E0,0E0,0E0,0E0,0E0,0E0,0E0,0E0,0E0,0E0,0E0,0E0,0E0,0E0,0E0,0E0,0E0,0E0,0E0,0E0,0E0,0E0,0E0,0E0,0E0,0E0,0E0,0E0,0E0,0E0,0E0,0E0],"parents":[2147483647,0,0,1,1,2,2,3,3,4,4,5,5,6,6,7,7,8,8,9,9,10,10,11,11,12,12,13,13,14,14,15,15,16,16,17,17,18,18,19,19,20,20,21,21,22,22,23,23,24,24,25,25,26,26,27,27,28,28,29,29,30,30],"right_children":[2,4,6,8,10,12,14,16,18,20,22,24,26,28,30,32,34,36,38,40,42,44,46,48,50,52,54,56,58,60,62,-1,-1,-1,-1,-1,-1,-1,-1,-1,-1,-1,-1,-1,-1,-1,-1,-1,-1,-1,-1,-1,-1,-1,-1,-1,-1,-1,-1,-1,-1,-1,-1],"split_conditions":[2.666044E0,1.4417241E0,9.166667E0,9.151698E-1,-2.9411764E0,-4.516129E0,1.875E1,8.5470086E-1,9.861786E-1,-5.904409E-1,4.6875E0,-4.7757697E0,8.720389E-2,1.5252845E-2,7.7966967E0,-2.7322397E0,3.4377337E0,-1.9283746E0,-5.4054055E0,-9.000015E-1,-6.250001E0,1.072386E0,6.8702292E0,1.1389157E0,-3.435546E0,4.5487215E-3,4.578438E0,5.797944E-1,1.793E1,3.3333332E1,6.8493156E0,-3.838938E-2,-7.093462E-2,-5.2053507E-2,5.464501E-3,-3.4657285E-2,-5.2969556E-2,5.5561583E-3,-3.700938E-2,-3.9661467E-2,-1.0497318E-2,1.7646031E-2,-1.9392109E-3,-3.0112056E-2,-1.5717404E-2,-7.3747854E-3,1.7340356E-2,3.254308E-2,5.828842E-2,-2.4155846E-2,2.4169592E-2,-4.1444767E-2,-1.5259142E-2,6.889657E-4,1.7148431E-2,-5.8989942E-2,8.178343E-3,3.5693083E-2,2.5733346E-2,4.9798317E-2,6.2453993E-2,-1.0070306E-3,4.2558834E-2],"split_indices":[27,27,23,27,23,23,23,23,26,12,24,4,26,26,27,24,26,23,24,8,24,26,23,15,6,26,27,17,3,24,24,0,0,0,0,0,0,0,0,0,0,0,0,0,0,0,0,0,0,0,0,0,0,0,0,0,0,0,0,0,0,0,0],"split_type":[0,0,0,0,0,0,0,0,0,0,0,0,0,0,0,0,0,0,0,0,0,0,0,0,0,0,0,0,0,0,0,0,0,0,0,0,0,0,0,0,0,0,0,0,0,0,0,0,0,0,0,0,0,0,0,0,0,0,0,0,0,0,0],"sum_hessian":[1.6145362E5,6.0954055E4,1.0049956E5,2.1413385E4,3.954067E4,8.037818E4,2.0121385E4,8.560662E3,1.2852723E4,7.854971E3,3.16857E4,2.5933559E4,5.444462E4,9.457406E3,1.0663978E4,7.3872695E3,1.1733923E3,8.078971E3,4.773751E3,1.7409032E3,6.114068E3,2.6829428E4,4.856272E3,7.393362E3,1.8540197E4,4.836416E3,4.9608207E4,1.1524567E2,9.34216E3,7.2577227E3,3.4062551E3,2.8527045E2,7.101999E3,1.0526783E3,1.2071397E2,1.1696989E3,6.9092725E3,2.537966E2,4.519954E3,2.748025E2,1.4661007E3,2.2867437E3,3.8273245E3,1.988852E4,6.940908E3,3.3792654E3,1.4770066E3,5.653108E3,1.7402538E3,3.1999915E2,1.8220197E4,1.5420289E3,3.2943875E3,2.7101848E4,2.250636E4,7.095527E1,4.4290398E1,6.103809E3,3.2383516E3,3.436879E3,3.8208435E3,1.5637424E2,3.2498809E3],"tree_param":{"num_deleted":"0","num_feature":"30","num_nodes":"63","size_leaf_vector":"1"}},{"base_weights":[3.5895305E-3,-7.1194553E-1,2.822081E-1,-1.1476079E0,-5.153333E-1,1.702463E-1,7.846041E-1,-1.3507962E0,-1.0137317E0,-1.7457227E-1,-5.887221E-1,5.302625E-1,3.1219648E-2,5.8673E-1,9.8817635E-1,-1.3984215E0,-7.650435E-1,-1.0800105E0,-7.057158E-1,-2.5693548E-1,3.866009E-1,-6.93585E-1,-3.440436E-1,7.459834E-1,4.4310805E-1,-1.9637199E-1,1.4371082E-1,-9.27898E-1,6.024987E-1,1.0764412E0,7.577931E-1,-7.0818685E-2,-3.7948217E-2,-4.649639E-2,1.2160516E-2,-3.3579346E-2,-5.6073375E-2,-3.749928E-2,4.31564E-2,2.856865E-3,-1.7373888E-2,-8.440819E-2,2.2861538E-2,-3.5168163E-2,3.8262174E-2,-2.4847588E-2,-5.0207893E-3,3.1372096E-2,5.5804558E-2,1.5464395E-2,2.9143319E-2,-1.9073835E-2,-4.6913684E-3,-4.616721E-3,1.3688007E-2,-7.023791E-2,-9.656319E-3,2.5566822E-2,4.0939197E-2,4.8520707E-2,6.196332E-2,2.176737E-2,4.2591654E-2],"categories":[],"categories_nodes":[],"categories_segments":[],"categories_sizes":[],"default_left":[0,0,0,0,0,0,0,0,0,0,0,0,0,0,0,0,0,0,0,0,0,0,0,0,0,0,0,0,0,0,0,0,0,0,0,0,0,0,0,0,0,0,0,0,0,0,0,0,0,0,0,0,0,0,0,0,0,0,0,0,0,0,0],"id":7,"left_children":[1,3,5,7,9,11,13,15,17,19,21,23,25,27,29,31,33,35,37,39,41,43,45,47,49,51,53,55,57,59,61,-1,-1,-1,-1,-1,-1,-1,-1,-1,-1,-1,-1,-1,-1,-1,-1,-1,-1,-1,-1,-1,-1,-1,-1,-1,-1,-1,-1,-1,-1,-1,-1],"loss_changes":[3.2105145E4,3.8651387E3,6.5194775E3,3.8013477E2,7.7757324E2,4.744131E3,8.50124E2,1.5411426E2,1.7184961E2,2.5488388E2,6.561963E2,4.9600684E2,1.7507168E3,2.56417E2,2.1068164E2,5.7831055E1,7.03221E1,1.1696387E2,1.0494757E2,1.3677097E2,1.04075424E2,2.5602246E2,2.8594684E2,3.3241406E2,3.515271E2,4.292574E2,1.4048572E3,3.836412E1,2.0853394E2,1.2846191E2,8.704761E1,0E0,0E0,0E0,0E0,0E0,0E0,0E0,0E0,0E0,0E0,0E0,0E0,0E0,0E0,0E0,0E0,0E0,0E0,0E0,0E0,0E0,0E0,0E0,0E0,0E0,0E0,0E0,0E0,0E0,0E0,0E0,0E0],"parents":[2147483647,0,0,1,1,2,2,3,3,4,4,5,5,6,6,7,7,8,8,9,9,10,10,11,11,12,12,13,13,14,14,15,15,16,16,17,17,18,18,19,19,20,20,21,21,22,22,23,23,24,24,25,25,26,26,27,27,28,28,29,29,30,30],"right_children":[2,4,6,8,10,12,14,16,18,20,22,24,26,28,30,32,34,36,38,40,42,44,46,48,50,52,54,56,58,60,62,-1,-1,-1,-1,-1,-1,-1,-1,-1,-1,-1,-1,-1,-1,-1,-1,-1,-1,-1,-1,-1,-1,-1,-1,-1,-1,-1,-1,-1,-1,-1,-1],"split_conditions":[2.162913E0,1.1770631E0,8.823529E0,7.2011936E-1,-2.688172E0,-4.878049E0,1.875E1,9.6153843E-1,1.608276E0,1.2366574E0,1.0943925E0,-4.7757697E0,3.0970511E0,9.718173E-3,8.069055E0,7.1698112E0,3.6072483E0,-2.7322397E0,1.262651E1,-6.818182E0,-7.988573E-1,1.0256414E1,2.7522936E0,1.1389157E0,5.4331207E0,4.6944377E-1,3.451533E-1,5.797944E-1,2.9545454E1,6.25E1,2.5E1,-7.0818685E-2,-3.7948217E-2,-4.649639E-2,1.2160516E-2,-3.3579346E-2,-5.6073375E-2,-3.749928E-2,4.31564E-2,2.856865E-3,-1.7373888E-2,-8.440819E-2,2.2861538E-2,-3.5168163E-2,3.8262174E-2,-2.4847588E-2,-5.0207893E-3,3.1372096E-2,5.5804558E-2,1.5464395E-2,2.9143319E-2,-1.9073835E-2,-4.6913684E-3,-4.616721E-3,1.3688007E-2,-7.023791E-2,-9.656319E-3,2.5566822E-2,4.0939197E-2,4.8520707E-2,6.196332E-2,2.176737E-2,4.2591654E-2],"split_indices":[27,27,23,27,23,23,23,23,26,9,26,4,27,26,27,26,26,24,26,24,15,24,25,15,27,26,26,17,25,25,24,0,0,0,0,0,0,0,0,0,0,0,0,0,0,0,0,0,0,0,0,0,0,0,0,0,0,0,0,0,0,0,0],"split_type":[0,0,0,0,0,0,0,0,0,0,0,0,0,0,0,0,0,0,0,0,0,0,0,0,0,0,0,0,0,0,0,0,0,0,0,0,0,0,0,0,0,0,0,0,0,0,0,0,0,0,0,0,0,0,0,0,0,0,0,0,0,0,0],"sum_hessian":[1.6103814E5,4.513154E4,1.159066E5,1.4032451E4,3.1099088E4,9.47848E4,2.1121799E4,5.5695405E3,8.46291E3,5.511708E3,2.558738E4,2.6404791E4,6.838001E4,1.0713019E4,1.040878E4,5.149312E3,4.2022864E2,6.9619966E3,1.5009138E3,4.8069185E3,7.0478955E2,1.7909562E4,7.677818E3,7.5956514E3,1.880914E4,2.2617912E4,4.5762094E4,1.0972215E2,1.0603297E4,7.522602E3,2.886178E3,5.0073633E3,1.4194875E2,3.6131763E2,5.891103E1,6.433619E2,6.318635E3,1.4602927E3,4.0620995E1,1.0754979E3,3.7314207E3,2.2402248E1,6.823873E2,1.77909E4,1.1866281E2,4.7162856E3,2.9615322E3,5.755266E3,1.8403853E3,9.610707E3,9.198433E3,8.0617827E3,1.455613E4,1.6256093E4,2.9506002E4,6.5903465E1,4.3818687E1,7.4619707E3,3.141326E3,4.560508E3,2.9620942E3,6.531927E2,2.2329854E3],"tree_param":{"num_deleted":"0","num_feature":"30","num_nodes":"63","size_leaf_vector":"1"}},{"base_weights":[1.8359391E-3,-6.593296E-1,2.8434086E-1,-1.1223112E0,-4.7186488E-1,1.970263E-1,8.516764E-1,-1.1799982E0,-6.8850374E-1,-6.467625E-1,-3.3324128E-1,5.4302764E-1,8.986573E-2,6.353159E-1,1.0097831E0,-1.3543026E0,-1.0641569E0,-9.5190185E-1,-4.2411193E-1,-1.6200054E-1,-6.9083416E-1,-4.395214E-1,-1.0817106E-1,4.5010784E-1,7.347744E-1,-9.732492E-2,2.1896574E-1,6.992115E-1,3.641679E-1,1.1238772E0,8.1201535E-1,-6.827354E-2,-2.4976816E-2,-1.473008E-2,-5.446018E-2,-4.9062762E-2,6.326343E-2,-2.4804166E-2,3.918877E-2,-1.5785316E-2,7.872346E-3,-3.6242034E-2,7.3232164E-4,-7.0239636E-3,-2.7256608E-2,-1.8722842E-2,-8.0059253E-4,-1.4158942E-2,2.3997052E-2,2.1757256E-2,4.224613E-2,-1.4312796E-2,6.155712E-4,-5.8014146E-3,1.6672129E-2,2.9436333E-2,4.3608915E-2,-2.6707692E-2,2.1963587E-2,6.0879417E-2,4.853883E-2,2.1036645E-2,4.2189743E-2],"categories":[],"categories_nodes":[],"categories_segments":[],"categories_sizes":[],"default_left":[0,0,0,0,0,0,0,0,0,0,0,0,0,0,0,0,0,0,0,0,0,0,0,0,0,0,0,0,0,0,0,0,0,0,0,0,0,0,0,0,0,0,0,0,0,0,0,0,0,0,0,0,0,0,0,0,0,0,0,0,0,0,0],"id":8,"left_children":[1,3,5,7,9,11,13,15,17,19,21,23,25,27,29,31,33,35,37,39,41,43,45,47,49,51,53,55,57,59,61,-1,-1,-1,-1,-1,-1,-1,-1,-1,-1,-1,-1,-1,-1,-1,-1,-1,-1,-1,-1,-1,-1,-1,-1,-1,-1,-1,-1,-1,-1,-1,-1],"loss_changes":[3.0007182E4,4.1735527E3,5.5755166E3,3.4585742E2,8.297114E2,3.6167324E3,5.127324E2,2.4530078E2,1.1293085E2,3.2316455E2,4.567876E2,4.105376E2,1.7999822E3,1.09504395E2,1.9456445E2,4.571289E1,1.4127637E2,5.4270264E1,7.122467E1,6.207325E1,3.3292676E2,4.095791E2,1.5034125E2,3.4012305E2,2.4793872E2,6.297586E2,1.6905334E3,9.738794E1,8.197797E1,7.7456055E1,3.9017822E1,0E0,0E0,0E0,0E0,0E0,0E0,0E0,0E0,0E0,0E0,0E0,0E0,0E0,0E0,0E0,0E0,0E0,0E0,0E0,0E0,0E0,0E0,0E0,0E0,0E0,0E0,0E0,0E0,0E0,0E0,0E0,0E0],"parents":[2147483647,0,0,1,1,2,2,3,3,4,4,5,5,6,6,7,7,8,8,9,9,10,10,11,11,12,12,13,13,14,14,15,15,16,16,17,17,18,18,19,19,20,20,21,21,22,22,23,23,24,24,25,25,26,26,27,27,28,28,29,29,30,30],"right_children":[2,4,6,8,10,12,14,16,18,20,22,24,26,28,30,32,34,36,38,40,42,44,46,48,50,52,54,56,58,60,62,-1,-1,-1,-1,-1,-1,-1,-1,-1,-1,-1,-1,-1,-1,-1,-1,-1,-1,-1,-1,-1,-1,-1,-1,-1,-1,-1,-1,-1,-1,-1,-1],"split_conditions":[2.2576387E0,1.1770631E0,1.2587407E1,1.4084507E0,1.6892436E0,-5.5944057E0,2.5E1,6.8981737E-1,1.1164106E0,-3.6697247E0,1.0831889E0,4.6559877E0,3.5641184E0,8.069055E0,7.208469E0,1.262651E1,-4.5454545E0,6.8702292E0,9.886107E0,5.164427E-1,4.5454545E0,-2.7972028E0,-4.488867E-1,-1.8957374E0,1.628E1,4.8544863E-1,2.523594E-1,1.875E1,1.334E1,2.295125E0,1.5252845E-2,-6.827354E-2,-2.4976816E-2,-1.473008E-2,-5.446018E-2,-4.9062762E-2,6.326343E-2,-2.4804166E-2,3.918877E-2,-1.5785316E-2,7.872346E-3,-3.6242034E-2,7.3232164E-4,-7.0239636E-3,-2.7256608E-2,-1.8722842E-2,-8.0059253E-4,-1.4158942E-2,2.3997052E-2,2.1757256E-2,4.224613E-2,-1.4312796E-2,6.155712E-4,-5.8014146E-3,1.6672129E-2,2.9436333E-2,4.3608915E-2,-2.6707692E-2,2.1963587E-2,6.0879417E-2,4.853883E-2,2.1036645E-2,4.2189743E-2],"split_indices":[27,27,23,23,27,23,24,27,26,23,26,21,27,27,27,26,24,23,26,0,23,24,12,16,3,26,26,23,3,26,26,0,0,0,0,0,0,0,0,0,0,0,0,0,0,0,0,0,0,0,0,0,0,0,0,0,0,0,0,0,0,0,0],"split_type":[0,0,0,0,0,0,0,0,0,0,0,0,0,0,0,0,0,0,0,0,0,0,0,0,0,0,0,0,0,0,0,0,0,0,0,0,0,0,0,0,0,0,0,0,0,0,0,0,0,0,0,0,0,0,0,0,0,0,0,0,0,0,0],"sum_hessian":[1.6065125E5,4.809337E4,1.1255788E5,1.3859368E4,3.4234004E4,9.7546695E4,1.5011188E4,1.2230964E4,1.6284038E3,1.5134645E4,1.9099357E4,2.306598E4,7.448071E4,6.3403755E3,8.6708125E3,4.8786245E3,7.35234E3,8.142428E2,8.1416095E2,1.2618627E3,1.3872782E4,1.2972318E4,6.127039E3,1.5539476E4,7.526504E3,3.0400496E4,4.408022E4,5.1296377E3,1.2107378E3,5.4953223E3,3.1754905E3,4.8149995E3,6.3624897E1,2.3228267E2,7.120057E3,8.041985E2,1.0044336E1,7.6901184E2,4.514909E1,8.5216064E2,4.0970206E2,1.323493E4,6.378526E2,3.3865137E3,9.585805E3,1.5742466E3,4.5527925E3,6.0703253E2,1.4932443E4,2.0246986E3,5.5018057E3,1.1163051E4,1.9237445E4,1.1226672E4,3.2853547E4,3.1332288E3,1.996409E3,9.283913E1,1.1178986E3,3.404104E3,2.0912183E3,2.398424E2,2.9356482E3],"tree_param":{"num_deleted":"0","num_feature":"30","num_nodes":"63","size_leaf_vector":"1"}},{"base_weights":[1.6279076E-3,-6.033042E-1,2.7481475E-1,-9.4917476E-1,-3.742897E-1,1.4595453E-1,8.113379E-1,-1.1799265E0,-7.827481E-1,1.4864406E-1,-4.1923285E-1,4.99585E-1,1.21263685E-2,6.265485E-1,1.0272821E0,-1.2312019E0,-7.070204E-1,-8.548994E-1,-4.8487338E-1,-2.4706316E-1,2.750833E-1,-4.7602233E-1,-1.4513604E-2,5.949096E-1,3.197837E-1,-4.3206897E-1,5.4188047E-2,3.547178E-1,7.217289E-1,1.1553979E0,6.2264025E-1,-3.35164E-2,-6.267012E-2,-4.1378167E-2,1.457259E-2,-2.2274466E-2,-4.454894E-2,1.4169705E-2,-2.6586572E-2,1.2234076E-2,-2.3901852E-2,3.592088E-2,8.984129E-3,-3.5718568E-2,-2.0544033E-2,-1.6232973E-2,1.4683181E-2,3.2507997E-2,1.305294E-2,1.694554E-2,-3.52186E-2,9.89348E-3,-2.782308E-2,-4.9419077E-3,8.634697E-3,8.345797E-3,2.6793187E-2,3.9656404E-2,1.2862722E-2,6.171645E-2,5.2918848E-2,2.0859756E-2,4.0508535E-2],"categories":[],"categories_nodes":[],"categories_segments":[],"categories_sizes":[],"default_left":[0,0,0,0,0,0,0,0,0,0,0,0,0,0,0,0,0,0,0,0,0,0,0,0,0,0,0,0,0,0,0,0,0,0,0,0,0,0,0,0,0,0,0,0,0,0,0,0,0,0,0,0,0,0,0,0,0,0,0,0,0,0,0],"id":9,"left_children":[1,3,5,7,9,11,13,15,17,19,21,23,25,27,29,31,33,35,37,39,41,43,45,47,49,51,53,55,57,59,61,-1,-1,-1,-1,-1,-1,-1,-1,-1,-1,-1,-1,-1,-1,-1,-1,-1,-1,-1,-1,-1,-1,-1,-1,-1,-1,-1,-1,-1,-1,-1,-1],"loss_changes":[2.6425479E4,3.9399023E3,7.61563E3,7.598965E2,7.035371E2,4.2036377E3,8.504629E2,2.0023047E2,2.4695703E2,1.1861752E2,6.33438E2,4.1768115E2,1.203953E3,2.971372E2,5.089795E2,9.220117E1,9.8335815E1,1.3638477E2,8.1106445E1,6.534511E1,7.5754105E1,3.7487988E2,3.2438956E2,2.936704E2,1.6576349E2,4.3692346E2,1.0675446E3,1.01363434E2,2.8208398E2,5.5660156E1,9.0753784E1,0E0,0E0,0E0,0E0,0E0,0E0,0E0,0E0,0E0,0E0,0E0,0E0,0E0,0E0,0E0,0E0,0E0,0E0,0E0,0E0,0E0,0E0,0E0,0E0,0E0,0E0,0E0,0E0,0E0,0E0,0E0,0E0],"parents":[2147483647,0,0,1,1,2,2,3,3,4,4,5,5,6,6,7,7,8,8,9,9,10,10,11,11,12,12,13,13,14,14,15,15,16,16,17,17,18,18,19,19,20,20,21,21,22,22,23,23,24,24,25,25,26,26,27,27,28,28,29,29,30,30],"right_children":[2,4,6,8,10,12,14,16,18,20,22,24,26,28,30,32,34,36,38,40,42,44,46,48,50,52,54,56,58,60,62,-1,-1,-1,-1,-1,-1,-1,-1,-1,-1,-1,-1,-1,-1,-1,-1,-1,-1,-1,-1,-1,-1,-1,-1,-1,-1,-1,-1,-1,-1,-1,-1],"split_conditions":[2.3053966E0,1.3966931E0,5.102041E0,9.151698E-1,-2.8985507E0,-2.8985507E0,1.7391304E1,7.692308E-1,1.5122606E0,-4.488867E-1,2.2900763E0,-4.7058825E0,7.664966E-2,4.03398E0,1.1827957E1,-2.7322397E0,4E0,-3.5714285E0,-5.4054055E0,-4.7058825E0,4.4245926E-1,3.002818E-1,3.7735848E0,8.196721E-1,5.6239333E0,-3.4188035E0,3.6568038E0,7.142857E0,1.1827957E1,1.659813E0,3.2373543E1,-3.35164E-2,-6.267012E-2,-4.1378167E-2,1.457259E-2,-2.2274466E-2,-4.454894E-2,1.4169705E-2,-2.6586572E-2,1.2234076E-2,-2.3901852E-2,3.592088E-2,8.984129E-3,-3.5718568E-2,-2.0544033E-2,-1.6232973E-2,1.4683181E-2,3.2507997E-2,1.305294E-2,1.694554E-2,-3.52186E-2,9.89348E-3,-2.782308E-2,-4.9419077E-3,8.634697E-3,8.345797E-3,2.6793187E-2,3.9656404E-2,1.2862722E-2,6.171645E-2,5.2918848E-2,2.0859756E-2,4.0508535E-2],"split_indices":[27,27,22,27,22,22,24,22,26,12,22,22,26,27,22,24,26,24,24,22,26,26,24,23,7,23,27,24,22,26,23,0,0,0,0,0,0,0,0,0,0,0,0,0,0,0,0,0,0,0,0,0,0,0,0,0,0,0,0,0,0,0,0],"split_type":[0,0,0,0,0,0,0,0,0,0,0,0,0,0,0,0,0,0,0,0,0,0,0,0,0,0,0,0,0,0,0,0,0,0,0,0,0,0,0,0,0,0,0,0,0,0,0,0,0,0,0,0,0,0,0,0,0,0,0,0,0,0,0],"sum_hessian":[1.5990114E5,4.9745484E4,1.1015565E5,1.9815473E4,2.9930012E4,8.882374E4,2.1331908E4,8.300323E3,1.151515E4,2.368375E3,2.7561637E4,2.4384947E4,6.4438793E4,1.1497526E4,9.834383E3,7.4867495E3,8.135735E2,9.268038E3,2.2471123E3,5.730862E2,1.7952888E3,2.4169758E4,3.3918801E3,1.5934269E4,8.450678E3,5.573007E3,5.8865785E4,2.9832593E3,8.514267E3,7.467848E3,2.3665344E3,2.8641614E2,7.2003335E3,7.2617554E2,8.739794E1,7.519072E2,8.516131E3,1.2876393E2,2.1183484E3,1.8299548E2,3.900907E2,3.1657278E2,1.4787161E3,5.185362E3,1.8984396E4,1.6906757E3,1.7012046E3,1.3670618E4,2.2636506E3,8.296499E3,1.5417868E2,9.18784E2,4.654223E3,2.5690746E4,3.317504E4,1.4659349E3,1.5173243E3,7.379036E3,1.1352306E3,4.110782E3,3.357066E3,1.1311185E3,1.235416E3],"tree_param":{"num_deleted":"0","num_feature":"30","num_nodes":"63","size_leaf_vector":"1"}},{"base_weights":[4.2162845E-3,-1.1494535E-1,7.656514E-1,4.5718268E-1,-2.5547853E-1,5.7703865E-1,9.9647534E-1,5.687439E-1,2.794129E-1,-3.4371087E-1,1.2800303E-1,9.142656E-1,4.9663743E-1,1.0879136E0,6.2692094E-1,1.1416769E0,5.383383E-1,9.61738E-2,3.659218E-1,9.90968E-2,-4.6613938E-1,-3.4363905E-1,1.833413E-1,1.2009485E0,7.987811E-1,2.72167E-1,6.4562434E-1,8.2271785E-1,1.1459197E0,3.308132E-1,7.6632655E-1,6.496144E-2,2.7362486E-2,-1.2699576E-2,2.7783161E-2,5.9686806E-3,-7.3591374E-2,1.6381172E-2,4.4662405E-2,-7.931988E-3,1.1510922E-2,-4.7648144E-3,-2.670615E-2,-3.0805176E-2,8.956774E-3,4.513511E-3,2.0452099E-2,2.63048E-2,6.1600663E-2,4.4186726E-2,2.9476115E-2,-5.239105E-2,1.5415296E-2,3.6544707E-2,1.3877684E-2,4.1969165E-2,-3.6735754E-2,6.464202E-2,5.3870916E-2,-1.1589215E-2,2.0866735E-2,3.940278E-2,-4.2353246E-2],"categories":[],"categories_nodes":[],"categories_segments":[],"categories_sizes":[],"default_left":[0,0,0,0,0,0,0,0,0,0,0,0,0,0,0,0,0,0,0,0,0,0,0,0,0,0,0,0,0,0,0,0,0,0,0,0,0,0,0,0,0,0,0,0,0,0,0,0,0,0,0,0,0,0,0,0,0,0,0,0,0,0,0],"id":10,"left_children":[1,3,5,7,9,11,13,15,17,19,21,23,25,27,29,31,33,35,37,39,41,43,45,47,49,51,53,55,57,59,61,-1,-1,-1,-1,-1,-1,-1,-1,-1,-1,-1,-1,-1,-1,-1,-1,-1,-1,-1,-1,-1,-1,-1,-1,-1,-1,-1,-1,-1,-1,-1,-1],"loss_changes":[1.4464786E4,1.108338E4,9.3845996E2,5.38853E2,3.7444624E3,3.2136157E2,3.268955E2,2.901421E2,1.6610236E2,4.877333E3,5.4031274E2,7.447864E1,3.2047925E2,1.1844336E2,7.915747E1,7.782568E1,2.1789209E2,1.224079E2,1.4339386E2,6.58603E2,1.7767734E3,3.0979358E2,3.8909705E2,1.2882446E1,2.834082E1,1.8286295E2,1.8059033E2,3.6939453E1,6.253711E1,3.0227951E1,4.6544373E1,0E0,0E0,0E0,0E0,0E0,0E0,0E0,0E0,0E0,0E0,0E0,0E0,0E0,0E0,0E0,0E0,0E0,0E0,0E0,0E0,0E0,0E0,0E0,0E0,0E0,0E0,0E0,0E0,0E0,0E0,0E0,0E0],"parents":[2147483647,0,0,1,1,2,2,3,3,4,4,5,5,6,6,7,7,8,8,9,9,10,10,11,11,12,12,13,13,14,14,15,15,16,16,17,17,18,18,19,19,20,20,21,21,22,22,23,23,24,24,25,25,26,26,27,27,28,28,29,29,30,30],"right_children":[2,4,6,8,10,12,14,16,18,20,22,24,26,28,30,32,34,36,38,40,42,44,46,48,50,52,54,56,58,60,62,-1,-1,-1,-1,-1,-1,-1,-1,-1,-1,-1,-1,-1,-1,-1,-1,-1,-1,-1,-1,-1,-1,-1,-1,-1,-1,-1,-1,-1,-1,-1,-1],"split_conditions":[5.102041E0,-2.8985507E0,2.5739645E1,-4.7058825E0,1.03092785E1,-1.71875E1,1.1827957E1,-4.6279488E0,-2.8220275E-1,-9.917356E0,8.720389E-2,-4.2857143E1,7.142857E0,8.088235E0,1.920904E1,-1.9502304E0,-6E1,9.719201E0,2.476E1,-2.185135E-1,-2.7522936E0,1.2987013E0,9.090909E0,-1.1593121E0,4.5905203E-1,-1.8957374E0,1.1827957E1,7.374315E-1,7.6673067E-1,-6.13209E-1,6.980298E-1,6.496144E-2,2.7362486E-2,-1.2699576E-2,2.7783161E-2,5.9686806E-3,-7.3591374E-2,1.6381172E-2,4.4662405E-2,-7.931988E-3,1.1510922E-2,-4.7648144E-3,-2.670615E-2,-3.0805176E-2,8.956774E-3,4.513511E-3,2.0452099E-2,2.63048E-2,6.1600663E-2,4.4186726E-2,2.9476115E-2,-5.239105E-2,1.5415296E-2,3.6544707E-2,1.3877684E-2,4.1969165E-2,-3.6735754E-2,6.464202E-2,5.3870916E-2,-1.1589215E-2,2.0866735E-2,3.940278E-2,-4.2353246E-2],"split_indices":[22,22,25,22,25,25,22,7,12,25,26,25,23,23,22,11,25,7,3,14,23,23,24,14,15,16,22,5,26,8,5,0,0,0,0,0,0,0,0,0,0,0,0,0,0,0,0,0,0,0,0,0,0,0,0,0,0,0,0,0,0,0,0],"split_type":[0,0,0,0,0,0,0,0,0,0,0,0,0,0,0,0,0,0,0,0,0,0,0,0,0,0,0,0,0,0,0,0,0,0,0,0,0,0,0,0,0,0,0,0,0,0,0,0,0,0,0,0,0,0,0,0,0,0,0,0,0,0,0],"sum_hessian":[1.5941727E5,1.3784567E5,2.1571594E4,2.7181885E4,1.1066379E5,1.187342E4,9.698173E3,1.6699309E4,1.0482577E4,8.996483E4,2.0698955E4,2.2836199E3,9.589801E3,7.772758E3,1.925415E3,8.3956195E2,1.5859746E4,3.3628389E3,7.119738E3,1.948598E4,7.047885E4,2.1728628E3,1.8526092E4,6.528057E2,1.6308142E3,3.8271465E3,5.762654E3,1.3980361E3,6.3747217E3,6.1762476E2,1.3077903E3,6.625897E2,1.7697224E2,3.3894922E2,1.5520797E4,3.3147817E3,4.8057148E1,6.6393496E3,4.8038843E2,6.570277E3,1.2915704E4,1.0919278E4,5.955957E4,1.4284058E3,7.4445703E2,1.3118375E4,5.407717E3,2.9658407E1,6.2314734E2,1.1572863E3,4.7352795E2,1.0116847E2,3.725978E3,4.677723E3,1.0849308E3,1.3837544E3,1.4281716E1,2.0209285E3,4.3537935E3,8.194575E1,5.3567896E2,1.290977E3,1.6813211E1],"tree_param":{"num_deleted":"0","num_feature":"30","num_nodes":"63","size_leaf_vector":"1"}},{"base_weights":[8.459288E-4,-4.4408E-1,3.2784885E-1,-8.209609E-1,-2.1139091E-1,2.5218648E-1,8.0439144E-1,-1.0560498E0,-6.4049333E-1,1.8889889E-1,-2.6972225E-1,5.089793E-1,1.5937312E-1,6.110315E-1,9.1639525E-1,-1.107116E0,-6.1964786E-1,-7.5144553E-1,-4.4652328E-1,-5.526299E-2,3.8107204E-1,-3.3739465E-1,6.137504E-2,5.2926755E-1,-9.037833E-1,-1.116907E-2,3.201468E-1,6.841561E-1,3.4894344E-1,1.0249627E0,7.381528E-1,-6.229902E-2,-4.9845953E-2,-3.326377E-2,5.2631617E-2,-2.0929556E-2,-4.0433336E-2,-2.7629131E-2,-9.727577E-3,7.7860686E-3,-1.4367155E-2,1.5145038E-2,3.708284E-2,-7.0379875E-3,-2.0029128E-2,-6.42441E-3,1.3117704E-2,1.915922E-2,3.1661596E-2,-6.0255777E-2,1.4138347E-3,-3.0438071E-2,1.3234102E-3,1.1298289E-2,2.5202824E-2,3.1979244E-2,5.154071E-2,-2.1152196E-2,2.2716021E-2,5.824045E-2,4.4061452E-2,1.4624993E-2,3.868973E-2],"categories":[],"categories_nodes":[],"categories_segments":[],"categories_sizes":[],"default_left":[0,0,0,0,0,0,0,0,0,0,0,0,0,0,0,0,0,0,0,0,0,0,0,0,0,0,0,0,0,0,0,0,0,0,0,0,0,0,0,0,0,0,0,0,0,0,0,0,0,0,0,0,0,0,0,0,0,0,0,0,0,0,0],"id":11,"left_children":[1,3,5,7,9,11,13,15,17,19,21,23,25,27,29,31,33,35,37,39,41,43,45,47,49,51,53,55,57,59,61,-1,-1,-1,-1,-1,-1,-1,-1,-1,-1,-1,-1,-1,-1,-1,-1,-1,-1,-1,-1,-1,-1,-1,-1,-1,-1,-1,-1,-1,-1,-1,-1],"loss_changes":[2.3063723E4,5.888755E3,3.2941416E3,1.0866777E3,9.6953406E2,1.8791919E3,2.7040527E2,2.471836E2,3.1169482E2,2.478581E2,8.120469E2,6.0042676E2,1.5881255E3,8.772229E1,1.5241943E2,1.5099023E2,8.981769E1,1.7523584E2,1.4093188E2,1.1398305E2,8.2982025E1,3.73761E2,2.3474608E2,3.1308154E2,8.346968E1,6.3224567E2,5.1621875E2,5.4662964E1,8.1928856E1,9.770361E1,4.7377075E1,0E0,0E0,0E0,0E0,0E0,0E0,0E0,0E0,0E0,0E0,0E0,0E0,0E0,0E0,0E0,0E0,0E0,0E0,0E0,0E0,0E0,0E0,0E0,0E0,0E0,0E0,0E0,0E0,0E0,0E0,0E0,0E0],"parents":[2147483647,0,0,1,1,2,2,3,3,4,4,5,5,6,6,7,7,8,8,9,9,10,10,11,11,12,12,13,13,14,14,15,15,16,16,17,17,18,18,19,19,20,20,21,21,22,22,23,23,24,24,25,25,26,26,27,27,28,28,29,29,30,30],"right_children":[2,4,6,8,10,12,14,16,18,20,22,24,26,28,30,32,34,36,38,40,42,44,46,48,50,52,54,56,58,60,62,-1,-1,-1,-1,-1,-1,-1,-1,-1,-1,-1,-1,-1,-1,-1,-1,-1,-1,-1,-1,-1,-1,-1,-1,-1,-1,-1,-1,-1,-1,-1,-1],"split_conditions":[2.9249444E0,1.6023291E0,1.4569536E1,1.0737959E0,-5.6603775E0,-7.03125E0,2.5E1,1.4084507E0,1.004422E0,-2.3119055E-2,4.5454545E0,7.2604384E0,5.8189654E-1,8.069055E0,7.208469E0,6.5571856E-1,1.262651E1,-2.9411764E0,1.5151515E0,4.0842265E-2,1.158222E0,-2.0833333E0,8.045977E0,-3.8508423E-2,1.0136184E0,9.718173E-3,7.619051E0,6.25E1,1.424E1,1.659813E0,1.5252845E-2,-6.229902E-2,-4.9845953E-2,-3.326377E-2,5.2631617E-2,-2.0929556E-2,-4.0433336E-2,-2.7629131E-2,-9.727577E-3,7.7860686E-3,-1.4367155E-2,1.5145038E-2,3.708284E-2,-7.0379875E-3,-2.0029128E-2,-6.42441E-3,1.3117704E-2,1.915922E-2,3.1661596E-2,-6.0255777E-2,1.4138347E-3,-3.0438071E-2,1.3234102E-3,1.1298289E-2,2.5202824E-2,3.1979244E-2,5.154071E-2,-2.1152196E-2,2.2716021E-2,5.824045E-2,4.4061452E-2,1.4624993E-2,3.868973E-2],"split_indices":[27,27,23,27,24,24,24,23,26,12,24,7,26,27,27,27,26,24,23,5,15,23,25,12,26,26,24,25,3,26,26,0,0,0,0,0,0,0,0,0,0,0,0,0,0,0,0,0,0,0,0,0,0,0,0,0,0,0,0,0,0,0,0],"split_type":[0,0,0,0,0,0,0,0,0,0,0,0,0,0,0,0,0,0,0,0,0,0,0,0,0,0,0,0,0,0,0,0,0,0,0,0,0,0,0,0,0,0,0,0,0,0,0,0,0,0,0,0,0,0,0,0,0,0,0,0,0,0,0],"sum_hessian":[1.5852027E5,6.715175E4,9.1368516E4,2.5632482E4,4.151927E4,7.885083E4,1.25176875E4,1.1129306E4,1.4503176E4,5.2802725E3,3.6238996E4,2.0931824E4,5.7919004E4,4.594034E3,7.923653E3,9.961842E3,1.1674644E3,9.223743E3,5.2794326E3,2.325652E3,2.9546204E3,3.0089367E4,6.149629E3,2.063617E4,2.9565335E2,2.810581E4,2.9813193E4,3.5903154E3,1.0037187E3,4.920976E3,3.002677E3,4.4026436E3,5.559198E3,1.1371011E3,3.036339E1,1.3545303E3,7.8692134E3,3.7143904E3,1.5650424E3,1.2181385E3,1.1075135E3,2.4299485E3,5.246719E2,7.3187876E3,2.2770578E4,3.1621938E3,2.9874353E3,8.582421E3,1.2053749E4,2.2328148E2,7.237189E1,1.664524E3,2.6441287E4,1.9718188E4,1.0095006E4,3.184061E3,4.0625427E2,1.20076866E2,8.8364185E2,2.4902634E3,2.4307126E3,2.232494E2,2.7794275E3],"tree_param":{"num_deleted":"0","num_feature":"30","num_nodes":"63","size_leaf_vector":"1"}},{"base_weights":[-8.6563063E-4,-5.998689E-1,2.2295265E-1,-9.854848E-1,-4.335198E-1,1.1431219E-1,7.1890783E-1,-1.0297601E0,-3.5738733E-1,-9.2955396E-2,-4.9518615E-1,4.3976295E-1,-1.5327925E-3,5.532655E-1,9.397687E-1,-1.2434111E0,-9.3212515E-1,-5.412072E-1,6.748181E-2,-2.1606252E-1,1.645923E-1,-5.450139E-1,-9.085293E-2,5.578275E-1,3.042577E-1,-1.9841205E-1,8.387596E-2,3.1088898E-1,6.4565444E-1,1.0636243E0,5.756159E-1,-6.243053E-2,2.2292044E-2,-2.2889292E-2,-4.855869E-2,-2.0016842E-2,-5.993812E-2,-7.6212506E-3,2.9672567E-2,1.03955185E-2,-1.5887167E-2,1.8353013E-2,-5.2868696E-3,-3.4184784E-2,-2.1662356E-2,-8.894146E-3,2.8964056E-2,2.2787493E-2,4.1052174E-2,1.987823E-2,8.369356E-3,-2.0523302E-2,-6.9524623E-3,-3.533996E-3,8.365774E-3,4.9028946E-3,2.4595099E-2,3.585153E-2,9.613593E-3,2.3463575E-2,5.3721733E-2,1.9961772E-2,3.6786683E-2],"categories":[],"categories_nodes":[],"categories_segments":[],"categories_sizes":[],"default_left":[0,0,0,0,0,0,0,0,0,0,0,0,0,0,0,0,0,0,0,0,0,0,0,0,0,0,0,0,0,0,0,0,0,0,0,0,0,0,0,0,0,0,0,0,0,0,0,0,0,0,0,0,0,0,0,0,0,0,0,0,0,0,0],"id":12,"left_children":[1,3,5,7,9,11,13,15,17,19,21,23,25,27,29,31,33,35,37,39,41,43,45,47,49,51,53,55,57,59,61,-1,-1,-1,-1,-1,-1,-1,-1,-1,-1,-1,-1,-1,-1,-1,-1,-1,-1,-1,-1,-1,-1,-1,-1,-1,-1,-1,-1,-1,-1,-1,-1],"loss_changes":[2.1180295E4,2.7560264E3,6.196579E3,3.59625E2,6.304414E2,3.556978E3,7.5536035E2,2.5095898E2,6.681499E1,1.460306E2,5.1203516E2,3.9596777E2,1.1700012E3,2.6420264E2,3.986001E2,3.393213E1,1.5327539E2,5.4630585E1,3.006377E1,1.3440991E2,8.158656E1,3.503755E2,1.6280434E2,3.550586E2,1.4717883E2,2.6489526E2,6.258301E2,1.25563446E2,2.764773E2,4.1787598E1,6.312915E1,0E0,0E0,0E0,0E0,0E0,0E0,0E0,0E0,0E0,0E0,0E0,0E0,0E0,0E0,0E0,0E0,0E0,0E0,0E0,0E0,0E0,0E0,0E0,0E0,0E0,0E0,0E0,0E0,0E0,0E0,0E0,0E0],"parents":[2147483647,0,0,1,1,2,2,3,3,4,4,5,5,6,6,7,7,8,8,9,9,10,10,11,11,12,12,13,13,14,14,15,15,16,16,17,17,18,18,19,19,20,20,21,21,22,22,23,23,24,24,25,25,26,26,27,27,28,28,29,29,30,30],"right_children":[2,4,6,8,10,12,14,16,18,20,22,24,26,28,30,32,34,36,38,40,42,44,46,48,50,52,54,56,58,60,62,-1,-1,-1,-1,-1,-1,-1,-1,-1,-1,-1,-1,-1,-1,-1,-1,-1,-1,-1,-1,-1,-1,-1,-1,-1,-1,-1,-1,-1,-1,-1,-1],"split_conditions":[2.1305022E0,1.1603408E0,5.102041E0,1.3071896E0,-1.7857143E0,-2.8985507E0,1.8627445E1,5.966855E-1,2.857143E0,5.535314E-1,2.2900763E0,-5.6603775E0,2.9956222E0,4.03398E0,1.1827957E1,1.2195122E0,-2.4390244E0,1.0666492E0,2.3229545E-1,-3.8461537E0,-2.7972028E0,1.6023291E0,8.786611E0,6.846468E0,-4.347826E0,-4.5002282E-1,-2.1098779E-1,5.882353E0,1.1827957E1,5.172414E0,3.2373543E1,-6.243053E-2,2.2292044E-2,-2.2889292E-2,-4.855869E-2,-2.0016842E-2,-5.993812E-2,-7.6212506E-3,2.9672567E-2,1.03955185E-2,-1.5887167E-2,1.8353013E-2,-5.2868696E-3,-3.4184784E-2,-2.1662356E-2,-8.894146E-3,2.8964056E-2,2.2787493E-2,4.1052174E-2,1.987823E-2,8.369356E-3,-2.0523302E-2,-6.9524623E-3,-3.533996E-3,8.365774E-3,4.9028946E-3,2.4595099E-2,3.585153E-2,9.613593E-3,2.3463575E-2,5.3721733E-2,1.9961772E-2,3.6786683E-2],"split_indices":[27,27,22,22,22,22,24,27,24,9,22,24,27,27,22,22,23,6,5,22,24,27,24,21,22,16,14,25,22,23,23,0,0,0,0,0,0,0,0,0,0,0,0,0,0,0,0,0,0,0,0,0,0,0,0,0,0,0,0,0,0,0,0],"split_type":[0,0,0,0,0,0,0,0,0,0,0,0,0,0,0,0,0,0,0,0,0,0,0,0,0,0,0,0,0,0,0,0,0,0,0,0,0,0,0,0,0,0,0,0,0,0,0,0,0,0,0,0,0,0,0,0,0,0,0,0,0,0,0],"sum_hessian":[1.579796E5,4.297219E4,1.150074E5,1.2949128E4,3.002306E4,9.4342766E4,2.0664633E4,1.209569E4,8.5343823E2,4.6034946E3,2.5419566E4,2.4765506E4,6.957726E4,1.1810725E4,8.853907E3,3.789817E3,8.305873E3,5.9567896E2,2.577593E2,3.1150557E3,1.4884391E3,2.263016E4,2.7894067E3,1.3232388E4,1.1533119E4,2.1051174E4,4.8526086E4,3.2610386E3,8.549686E3,6.605165E3,2.2487427E3,3.7785066E3,1.1310238E1,6.329121E2,7.672961E3,4.9203043E2,1.0364853E2,1.8213084E2,7.562847E1,6.021744E2,2.5128813E3,8.5104596E2,6.3739307E2,1.0096396E4,1.2533763E4,2.4695688E3,3.1983795E2,9.536972E3,3.6954155E3,6.8563804E3,4.676739E3,4.6025356E3,1.6448639E4,1.701254E4,3.1513547E4,1.4997545E3,1.761284E3,7.3860894E3,1.1635966E3,1.1895031E2,6.4862144E3,1.0719908E3,1.176752E3],"tree_param":{"num_deleted":"0","num_feature":"30","num_nodes":"63","size_leaf_vector":"1"}},{"base_weights":[-1.8077735E-3,-5.6372595E-1,2.0846385E-1,-9.1448253E-1,-3.939016E-1,1.0336378E-1,6.8989974E-1,-1.132947E0,-7.904221E-1,-4.485269E-2,-4.5846108E-1,4.2094907E-1,-5.319568E-3,5.4718035E-1,9.4077617E-1,-1.17186E0,-2.8855047E-1,-4.0637422E-1,-8.2924676E-1,-3.0837202E-1,8.287559E-2,-5.2095973E-1,-1.8716387E-1,9.911968E-1,3.9323914E-1,2.920981E-1,-4.7501523E-2,3.9164802E-1,6.8142086E-1,1.0311778E0,5.59713E-1,-5.4585446E-2,-6.346567E-2,-3.5491128E-2,8.21432E-3,3.433836E-2,-2.2850381E-2,-4.4178978E-2,-2.8989006E-2,1.7158132E-2,-1.8202366E-2,2.2238124E-2,-3.0534694E-4,-1.4977704E-2,-2.9198736E-2,-1.7139956E-2,3.660781E-3,3.1722937E-2,6.39752E-2,2.3569724E-2,1.2178086E-2,-3.8228605E-2,1.6131667E-2,-6.498123E-3,7.292367E-3,-1.5958058E-2,2.2060454E-2,3.9150577E-2,1.7038893E-2,3.7261978E-2,5.3497702E-2,1.321743E-2,3.4484815E-2],"categories":[],"categories_nodes":[],"categories_segments":[],"categories_sizes":[],"default_left":[0,0,0,0,0,0,0,0,0,0,0,0,0,0,0,0,0,0,0,0,0,0,0,0,0,0,0,0,0,0,0,0,0,0,0,0,0,0,0,0,0,0,0,0,0,0,0,0,0,0,0,0,0,0,0,0,0,0,0,0,0,0,0],"id":13,"left_children":[1,3,5,7,9,11,13,15,17,19,21,23,25,27,29,31,33,35,37,39,41,43,45,47,49,51,53,55,57,59,61,-1,-1,-1,-1,-1,-1,-1,-1,-1,-1,-1,-1,-1,-1,-1,-1,-1,-1,-1,-1,-1,-1,-1,-1,-1,-1,-1,-1,-1,-1,-1,-1],"loss_changes":[1.8556154E4,2.5469092E3,5.782453E3,3.7699512E2,6.492881E2,3.237884E3,7.3254297E2,1.6544824E2,1.322583E2,1.5148753E2,4.1216162E2,3.774043E2,8.768028E2,2.7219995E2,2.5499951E2,3.608252E1,4.2886047E1,4.5644913E1,1.0889404E2,5.3425232E1,9.764754E1,2.7548145E2,1.8464328E2,1.1290698E2,2.666587E2,2.8029797E2,9.759309E2,2.1330688E2,2.4205371E2,6.553369E1,5.44646E1,0E0,0E0,0E0,0E0,0E0,0E0,0E0,0E0,0E0,0E0,0E0,0E0,0E0,0E0,0E0,0E0,0E0,0E0,0E0,0E0,0E0,0E0,0E0,0E0,0E0,0E0,0E0,0E0,0E0,0E0,0E0,0E0],"parents":[2147483647,0,0,1,1,2,2,3,3,4,4,5,5,6,6,7,7,8,8,9,9,10,10,11,11,12,12,13,13,14,14,15,15,16,16,17,17,18,18,19,19,20,20,21,21,22,22,23,23,24,24,25,25,26,26,27,27,28,28,29,29,30,30],"right_children":[2,4,6,8,10,12,14,16,18,20,22,24,26,28,30,32,34,36,38,40,42,44,46,48,50,52,54,56,58,60,62,-1,-1,-1,-1,-1,-1,-1,-1,-1,-1,-1,-1,-1,-1,-1,-1,-1,-1,-1,-1,-1,-1,-1,-1,-1,-1,-1,-1,-1,-1,-1,-1],"split_conditions":[2.1305022E0,1.2094874E0,5.102041E0,7.2011936E-1,-1.7857143E0,-2.9850745E0,3.6363636E1,8.9285713E-1,-1.4705882E0,-2.6595598E-1,2.9411764E0,-4.4020047E0,-5.5944057E0,8.421053E0,1.1827957E1,4.295E0,1.5267175E0,-3.7037036E0,1.4084507E0,-2.7866015E0,-5.5944057E0,-6.5789475E0,2E0,1.9194105E-1,-4.7058825E0,-1.9829377E0,3.6764705E0,-1.3161283E0,1.1827957E1,5.8823576E0,1.920904E1,-5.4585446E-2,-6.346567E-2,-3.5491128E-2,8.21432E-3,3.433836E-2,-2.2850381E-2,-4.4178978E-2,-2.8989006E-2,1.7158132E-2,-1.8202366E-2,2.2238124E-2,-3.0534694E-4,-1.4977704E-2,-2.9198736E-2,-1.7139956E-2,3.660781E-3,3.1722937E-2,6.39752E-2,2.3569724E-2,1.2178086E-2,-3.8228605E-2,1.6131667E-2,-6.498123E-3,7.292367E-3,-1.5958058E-2,2.2060454E-2,3.9150577E-2,1.7038893E-2,3.7261978E-2,5.3497702E-2,1.321743E-2,3.4484815E-2],"split_indices":[27,27,22,27,22,22,25,22,22,12,24,7,23,23,22,18,24,22,23,7,23,25,22,5,22,16,24,16,22,23,22,0,0,0,0,0,0,0,0,0,0,0,0,0,0,0,0,0,0,0,0,0,0,0,0,0,0,0,0,0,0,0,0],"split_type":[0,0,0,0,0,0,0,0,0,0,0,0,0,0,0,0,0,0,0,0,0,0,0,0,0,0,0,0,0,0,0,0,0,0,0,0,0,0,0,0,0,0,0,0,0,0,0,0,0,0,0,0,0,0,0,0,0,0,0,0,0,0,0],"sum_hessian":[1.5704638E5,4.2764285E4,1.14282086E5,1.3948977E4,2.8815309E4,9.3805305E4,2.0476785E4,5.048997E3,8.8999795E3,4.498242E3,2.4317066E4,2.391652E4,6.988878E4,1.30541045E4,7.4226807E3,4.8260864E3,2.2291064E2,8.1841223E2,8.0815674E3,1.4683081E3,3.029934E3,1.9762982E4,4.5540835E3,1.1065352E3,2.2809984E4,8.679914E3,6.120887E4,6.049618E3,7.004487E3,5.9978184E3,1.4248625E3,2.6553806E3,2.1707058E3,1.1530047E2,1.0761017E2,3.558643E1,7.828258E2,6.6338096E3,1.4477577E3,1.1504503E2,1.3532632E3,5.974133E2,2.4325208E3,4.3802236E3,1.5382759E4,2.850398E3,1.7036855E3,4.961586E2,6.103765E2,1.4983438E4,7.826546E3,2.4301678E2,8.436897E3,4.2909383E4,1.8299484E4,3.9382913E2,5.655789E3,5.394178E3,1.6103086E3,7.189607E2,5.2788574E3,4.3659018E2,9.882724E2],"tree_param":{"num_deleted":"0","num_feature":"30","num_nodes":"63","size_leaf_vector":"1"}},{"base_weights":[2.2358397E-5,-4.0679976E-1,2.7729467E-1,-7.371343E-1,-1.9945657E-1,1.6784897E-1,6.9670326E-1,-1.0292649E0,-6.0340416E-1,2.0589042E-1,-2.4769989E-1,4.6575207E-1,7.531134E-2,5.6065935E-1,9.231329E-1,-1.0802071E0,-4.4774848E-1,-6.289768E-1,1.2398063E-2,1.3748802E-1,6.686951E-1,-3.304077E-1,-1.5665002E-2,3.8378373E-1,6.224364E-1,-1.9432375E-1,1.4341143E-1,4.7973508E-1,8.1118166E-1,1.0111638E0,5.745567E-1,-3.537643E-2,-5.562557E-2,-2.6787108E-2,4.771016E-2,-1.2522652E-2,-3.3765037E-2,-5.2758567E-3,7.703478E-2,9.326851E-3,-2.1648167E-2,5.1976353E-2,1.4471553E-2,-2.3353752E-2,-1.1007884E-2,-4.86567E-3,1.3261941E-2,1.1530295E-2,2.2560189E-2,2.4980893E-2,5.5580914E-2,8.194694E-3,-1.64635E-2,-9.299896E-3,9.3603125E-3,2.678687E-2,2.0755006E-3,4.8972428E-2,2.3716468E-2,3.7142966E-2,5.2723806E-2,1.253925E-2,3.5386316E-2],"categories":[],"categories_nodes":[],"categories_segments":[],"categories_sizes":[],"default_left":[0,0,0,0,0,0,0,0,0,0,0,0,0,0,0,0,0,0,0,0,0,0,0,0,0,0,0,0,0,0,0,0,0,0,0,0,0,0,0,0,0,0,0,0,0,0,0,0,0,0,0,0,0,0,0,0,0,0,0,0,0,0,0],"id":14,"left_children":[1,3,5,7,9,11,13,15,17,19,21,23,25,27,29,31,33,35,37,39,41,43,45,47,49,51,53,55,57,59,61,-1,-1,-1,-1,-1,-1,-1,-1,-1,-1,-1,-1,-1,-1,-1,-1,-1,-1,-1,-1,-1,-1,-1,-1,-1,-1,-1,-1,-1,-1,-1,-1],"loss_changes":[1.7696236E4,4.354912E3,4.2822773E3,9.571221E2,7.640193E2,2.039595E3,5.940674E2,2.2741211E2,2.6498828E2,1.313758E2,6.6996875E2,2.2487354E2,1.0366548E3,2.4404712E2,2.2155957E2,8.4234375E1,7.719157E1,2.8296045E2,1.2132968E2,1.0139414E2,7.47596E1,3.87635E2,2.1045537E2,1.1875452E2,3.6101758E2,5.503514E2,6.502661E2,2.2375928E2,1.662356E2,6.623193E1,6.281494E1,0E0,0E0,0E0,0E0,0E0,0E0,0E0,0E0,0E0,0E0,0E0,0E0,0E0,0E0,0E0,0E0,0E0,0E0,0E0,0E0,0E0,0E0,0E0,0E0,0E0,0E0,0E0,0E0,0E0,0E0,0E0,0E0],"parents":[2147483647,0,0,1,1,2,2,3,3,4,4,5,5,6,6,7,7,8,8,9,9,10,10,11,11,12,12,13,13,14,14,15,15,16,16,17,17,18,18,19,19,20,20,21,21,22,22,23,23,24,24,25,25,26,26,27,27,28,28,29,29,30,30],"right_children":[2,4,6,8,10,12,14,16,18,20,22,24,26,28,30,32,34,36,38,40,42,44,46,48,50,52,54,56,58,60,62,-1,-1,-1,-1,-1,-1,-1,-1,-1,-1,-1,-1,-1,-1,-1,-1,-1,-1,-1,-1,-1,-1,-1,-1,-1,-1,-1,-1,-1,-1,-1,-1],"split_conditions":[2.8149357E0,1.5877258E0,5.102041E0,9.151698E-1,-2.8985507E0,-3.8461537E0,3.6363636E1,8.9285713E-1,4.0816326E0,1.2632937E0,1.1754583E0,8.3293974E-1,1.8575825E-1,1.875E1,1.1827957E1,-3.9473684E0,9.886107E0,-1.7857143E0,5.7446808E1,4.2918456E-1,1.3790492E0,-2.3119055E-2,3.5714285E0,4.6683865E0,1.0900612E0,-2.9411764E0,-8.4397787E-1,1.1827957E1,1.1827957E1,6.6666665E0,1.920904E1,-3.537643E-2,-5.562557E-2,-2.6787108E-2,4.771016E-2,-1.2522652E-2,-3.3765037E-2,-5.2758567E-3,7.703478E-2,9.326851E-3,-2.1648167E-2,5.1976353E-2,1.4471553E-2,-2.3353752E-2,-1.1007884E-2,-4.86567E-3,1.3261941E-2,1.1530295E-2,2.2560189E-2,2.4980893E-2,5.5580914E-2,8.194694E-3,-1.64635E-2,-9.299896E-3,9.3603125E-3,2.678687E-2,2.0755006E-3,4.8972428E-2,2.3716468E-2,3.7142966E-2,5.2723806E-2,1.253925E-2,3.5386316E-2],"split_indices":[27,27,22,27,22,22,25,22,23,14,26,10,26,23,22,25,26,22,25,23,14,12,22,27,15,23,16,22,22,23,22,0,0,0,0,0,0,0,0,0,0,0,0,0,0,0,0,0,0,0,0,0,0,0,0,0,0,0,0,0,0,0,0],"split_type":[0,0,0,0,0,0,0,0,0,0,0,0,0,0,0,0,0,0,0,0,0,0,0,0,0,0,0,0,0,0,0,0,0,0,0,0,0,0,0,0,0,0,0,0,0,0,0,0,0,0,0,0,0,0,0,0,0,0,0,0,0,0,0],"sum_hessian":[1.5687894E5,6.3584727E4,9.329421E4,2.4518832E4,3.9065895E4,7.39884E4,1.9305816E4,7.697141E3,1.6821691E4,4.154433E3,3.491146E4,1.7534639E4,5.6453758E4,1.2062389E4,7.243428E3,7.0762183E3,6.209229E2,1.6151119E4,6.7057166E2,3.6207937E3,5.3363916E2,2.5736826E4,9.174636E3,1.1514825E4,6.019814E3,1.1382525E4,4.507123E4,9.119804E3,2.9425847E3,5.7812256E3,1.4622024E3,5.665234E2,6.509695E3,5.849007E2,3.602217E1,1.7619962E3,1.4389123E4,6.233434E2,4.722829E1,3.3348982E3,2.8589554E2,2.6880542E2,2.6483377E2,1.1489794E4,1.4247032E4,7.1092485E3,2.0653872E3,3.5210125E3,7.9938125E3,4.8135146E3,1.2062997E3,3.1143806E3,8.2681455E3,5.288378E3,3.9782855E4,8.0860127E3,1.0337909E3,1.9608716E3,9.817132E2,8.063887E2,4.974837E3,4.2719904E2,1.0350033E3],"tree_param":{"num_deleted":"0","num_feature":"30","num_nodes":"63","size_leaf_vector":"1"}},{"base_weights":[2.8554352E-3,-4.819679E-1,2.0910169E-1,-8.7006706E-1,-3.4663635E-1,3.932281E-2,3.7699738E-1,-1.0636489E0,-7.5217664E-1,-4.4567576E-1,-1.7751305E-1,-1.0371192E-2,4.6788883E-1,1.6048037E-1,4.6618944E-1,-1.0967661E0,-1.1168112E-1,-8.22728E-1,-4.291808E-1,-1.7603959E-1,-5.15413E-1,-2.3679586E-1,1.0790674E-1,1.8528704E-1,-9.9622585E-2,3.439372E-1,9.363409E-1,1.1383751E-1,8.376276E-1,4.1195595E-1,6.9849914E-1,-5.666798E-2,-3.1927083E-2,-2.1830343E-2,4.7448233E-2,-5.312854E-2,-3.7890207E-2,1.6449668E-2,-2.4728965E-2,-2.5614968E-2,-5.3326525E-3,-3.5096813E-2,-2.2200337E-2,-1.4757024E-2,4.6643387E-3,-1.4524299E-2,1.0192588E-2,-4.99282E-2,1.0298817E-2,-1.2110679E-2,3.038714E-3,1.1172554E-2,2.2334432E-2,3.956264E-2,5.2985013E-2,-2.825628E-2,8.701225E-3,1.8675717E-2,5.386423E-2,1.3531609E-2,2.4221173E-2,3.923015E-2,2.4865245E-2],"categories":[],"categories_nodes":[],"categories_segments":[],"categories_sizes":[],"default_left":[0,0,0,0,0,0,0,0,0,0,0,0,0,0,0,0,0,0,0,0,0,0,0,0,0,0,0,0,0,0,0,0,0,0,0,0,0,0,0,0,0,0,0,0,0,0,0,0,0,0,0,0,0,0,0,0,0,0,0,0,0,0,0],"id":15,"left_children":[1,3,5,7,9,11,13,15,17,19,21,23,25,27,29,31,33,35,37,39,41,43,45,47,49,51,53,55,57,59,61,-1,-1,-1,-1,-1,-1,-1,-1,-1,-1,-1,-1,-1,-1,-1,-1,-1,-1,-1,-1,-1,-1,-1,-1,-1,-1,-1,-1,-1,-1,-1,-1],"loss_changes":[1.5611171E4,2.446787E3,3.1220825E3,2.7392383E2,5.785508E2,1.159904E3,1.0633423E3,1.4340869E2,1.7020947E2,4.095376E2,2.1597607E2,8.5223645E2,3.2814148E2,5.0732242E2,4.9098438E2,7.293164E1,5.357415E1,9.471777E1,6.687581E1,1.04387695E2,2.3012695E2,2.035658E2,8.396021E1,3.7457544E2,7.6657117E2,5.5255127E1,2.0155273E1,6.14437E2,1.145965E2,3.236548E2,1.2733057E2,0E0,0E0,0E0,0E0,0E0,0E0,0E0,0E0,0E0,0E0,0E0,0E0,0E0,0E0,0E0,0E0,0E0,0E0,0E0,0E0,0E0,0E0,0E0,0E0,0E0,0E0,0E0,0E0,0E0,0E0,0E0,0E0],"parents":[2147483647,0,0,1,1,2,2,3,3,4,4,5,5,6,6,7,7,8,8,9,9,10,10,11,11,12,12,13,13,14,14,15,15,16,16,17,17,18,18,19,19,20,20,21,21,22,22,23,23,24,24,25,25,26,26,27,27,28,28,29,29,30,30],"right_children":[2,4,6,8,10,12,14,16,18,20,22,24,26,28,30,32,34,36,38,40,42,44,46,48,50,52,54,56,58,60,62,-1,-1,-1,-1,-1,-1,-1,-1,-1,-1,-1,-1,-1,-1,-1,-1,-1,-1,-1,-1,-1,-1,-1,-1,-1,-1,-1,-1,-1,-1,-1,-1],"split_conditions":[2.2576387E0,1.142709E0,4.5376215E0,6.8981737E-1,9.861786E-1,1.0256414E1,3.298951E-1,7.1698112E0,1.6336871E0,-2.9411764E0,4.5454545E0,-3.6649215E0,2.5E1,3E1,4.958159E1,1.0869565E0,1.3546238E0,-6.438698E-1,-6.5789475E0,1.4852092E0,2.7157012E-1,1.0741212E0,2.877698E0,-2.8093645E1,6.9854665E-1,1.4583333E1,3.3333332E1,1.5252845E-2,4.5487215E-3,-2.185135E-1,8.508705E0,-5.666798E-2,-3.1927083E-2,-2.1830343E-2,4.7448233E-2,-5.312854E-2,-3.7890207E-2,1.6449668E-2,-2.4728965E-2,-2.5614968E-2,-5.3326525E-3,-3.5096813E-2,-2.2200337E-2,-1.4757024E-2,4.6643387E-3,-1.4524299E-2,1.0192588E-2,-4.99282E-2,1.0298817E-2,-1.2110679E-2,3.038714E-3,1.1172554E-2,2.2334432E-2,3.956264E-2,5.2985013E-2,-2.825628E-2,8.701225E-3,1.8675717E-2,5.386423E-2,1.3531609E-2,2.4221173E-2,3.923015E-2,2.4865245E-2],"split_indices":[27,27,27,27,26,24,26,26,26,24,24,24,24,24,25,24,13,12,25,27,26,14,25,24,26,25,24,26,26,14,27,0,0,0,0,0,0,0,0,0,0,0,0,0,0,0,0,0,0,0,0,0,0,0,0,0,0,0,0,0,0,0,0],"split_type":[0,0,0,0,0,0,0,0,0,0,0,0,0,0,0,0,0,0,0,0,0,0,0,0,0,0,0,0,0,0,0,0,0,0,0,0,0,0,0,0,0,0,0,0,0,0,0,0,0,0,0,0,0,0,0,0,0,0,0,0,0,0,0],"sum_hessian":[1.561209E5,4.659296E4,1.0952795E5,1.2044886E4,3.4548074E4,5.4459473E4,5.506848E4,4.5555596E3,7.4893257E3,2.1787174E4,1.2760899E4,4.880148E4,5.65799E3,1.6067632E4,3.900085E4,4.4021597E3,1.5340005E2,6.1451885E3,1.3441372E3,4.4780264E3,1.7309148E4,1.0566679E4,2.1942202E3,1.5286968E4,3.351451E4,4.4756807E3,1.1823099E3,1.5033424E4,1.0342075E3,3.1621828E4,7.379022E3,4.0750388E3,3.271208E2,1.1794929E2,3.545078E1,1.3054961E3,4.8396924E3,1.0629415E2,1.2378431E3,7.6463617E2,3.7133904E3,4.789103E3,1.2520045E4,8.979834E3,1.5868453E3,4.25276E2,1.7689442E3,2.616756E2,1.5025292E4,1.77421E4,1.5772413E4,2.061969E3,2.4137114E3,5.470847E2,6.352253E2,1.2233125E3,1.3810111E4,3.5319525E2,6.810123E2,1.072073E4,2.0901098E4,5.1651333E3,2.2138884E3],"tree_param":{"num_deleted":"0","num_feature":"30","num_nodes":"63","size_leaf_vector":"1"}},{"base_weights":[6.264451E-4,-5.212163E-1,1.8024407E-1,-8.6422485E-1,-3.8304138E-1,8.571191E-2,6.327466E-1,-1.0571522E0,-7.551194E-1,-6.481294E-2,-4.3916917E-1,3.802961E-1,-1.2903449E-2,4.8317024E-1,8.4275943E-1,-1.0995564E0,-3.9728504E-1,-7.974734E-1,-3.2656568E-1,-1.9100055E-1,2.0171125E-1,-4.682848E-1,1.5717585E-1,9.209238E-1,3.5520625E-1,-2.0972402E-1,5.3122904E-2,3.1373495E-1,6.1799705E-1,9.72637E-1,4.663904E-1,1.1792424E-2,-5.556596E-2,-3.0607263E-2,3.8305607E-2,-1.765138E-2,-4.1548084E-2,-2.9307097E-2,9.466131E-3,6.847329E-3,-1.47413565E-2,2.7183367E-2,1.114575E-3,-3.365849E-2,-1.9996742E-2,-3.961577E-2,9.937033E-3,3.105933E-2,5.997743E-2,3.8329158E-2,1.6298944E-2,6.6634165E-3,-1.642164E-2,-4.771487E-3,7.8031174E-3,8.535976E-3,2.4714734E-2,3.4555614E-2,1.1876162E-2,5.472982E-2,4.4413872E-2,1.7023986E-2,3.526593E-2],"categories":[],"categories_nodes":[],"categories_segments":[],"categories_sizes":[],"default_left":[0,0,0,0,0,0,0,0,0,0,0,0,0,0,0,0,0,0,0,0,0,0,0,0,0,0,0,0,0,0,0,0,0,0,0,0,0,0,0,0,0,0,0,0,0,0,0,0,0,0,0,0,0,0,0,0,0,0,0,0,0,0,0],"id":16,"left_children":[1,3,5,7,9,11,13,15,17,19,21,23,25,27,29,31,33,35,37,39,41,43,45,47,49,51,53,55,57,59,61,-1,-1,-1,-1,-1,-1,-1,-1,-1,-1,-1,-1,-1,-1,-1,-1,-1,-1,-1,-1,-1,-1,-1,-1,-1,-1,-1,-1,-1,-1,-1,-1],"loss_changes":[1.45401045E4,1.8821455E3,4.9363555E3,2.3909375E2,5.0570654E2,2.7732542E3,6.2590576E2,1.1461719E2,1.3193066E2,1.428751E2,4.1804883E2,3.2430542E2,9.294591E2,2.658413E2,4.0481104E2,6.1105957E1,6.302289E1,9.830615E1,8.819716E1,9.822651E1,8.367389E1,3.2102588E2,4.4343246E1,8.7685425E1,2.7476514E2,7.3158246E2,8.189817E2,1.3321408E2,1.801731E2,6.2256348E1,6.3728943E1,0E0,0E0,0E0,0E0,0E0,0E0,0E0,0E0,0E0,0E0,0E0,0E0,0E0,0E0,0E0,0E0,0E0,0E0,0E0,0E0,0E0,0E0,0E0,0E0,0E0,0E0,0E0,0E0,0E0,0E0,0E0,0E0],"parents":[2147483647,0,0,1,1,2,2,3,3,4,4,5,5,6,6,7,7,8,8,9,9,10,10,11,11,12,12,13,13,14,14,15,15,16,16,17,17,18,18,19,19,20,20,21,21,22,22,23,23,24,24,25,25,26,26,27,27,28,28,29,29,30,30],"right_children":[2,4,6,8,10,12,14,16,18,20,22,24,26,28,30,32,34,36,38,40,42,44,46,48,50,52,54,56,58,60,62,-1,-1,-1,-1,-1,-1,-1,-1,-1,-1,-1,-1,-1,-1,-1,-1,-1,-1,-1,-1,-1,-1,-1,-1,-1,-1,-1,-1,-1,-1,-1,-1],"split_conditions":[2.068006E0,1.1254896E0,5.102041E0,6.5571856E-1,-1.7857143E0,-2.9850745E0,1.8627445E1,4.2394495E0,1.3071896E0,5.5832416E-1,3.4377337E0,-4.4020047E0,2.523594E-1,5.0038543E0,1.1827957E1,-2.259887E0,1.4084507E0,-1.6194352E0,2.857143E0,-3.5928144E0,-4.2735043E0,3.6050713E-1,1.258E1,1.9194105E-1,-1.2780596E1,-2.877698E0,3.1961653E0,8.450705E0,1.1827957E1,1.1052903E0,4.21875E1,1.1792424E-2,-5.556596E-2,-3.0607263E-2,3.8305607E-2,-1.765138E-2,-4.1548084E-2,-2.9307097E-2,9.466131E-3,6.847329E-3,-1.47413565E-2,2.7183367E-2,1.114575E-3,-3.365849E-2,-1.9996742E-2,-3.961577E-2,9.937033E-3,3.105933E-2,5.997743E-2,3.8329158E-2,1.6298944E-2,6.6634165E-3,-1.642164E-2,-4.771487E-3,7.8031174E-3,8.535976E-3,2.4714734E-2,3.4555614E-2,1.1876162E-2,5.472982E-2,4.4413872E-2,1.7023986E-2,3.526593E-2],"split_indices":[27,27,22,27,22,22,24,26,22,9,26,7,26,27,22,23,23,22,24,22,23,26,3,5,4,23,27,24,22,26,23,0,0,0,0,0,0,0,0,0,0,0,0,0,0,0,0,0,0,0,0,0,0,0,0,0,0,0,0,0,0,0,0],"split_type":[0,0,0,0,0,0,0,0,0,0,0,0,0,0,0,0,0,0,0,0,0,0,0,0,0,0,0,0,0,0,0,0,0,0,0,0,0,0,0,0,0,0,0,0,0,0,0,0,0,0,0,0,0,0,0,0,0,0,0,0,0,0,0],"sum_hessian":[1.5512233E5,3.9720367E4,1.1540196E5,1.140424E4,2.8316127E4,9.54607E4,1.9941256E4,4.1161665E3,7.288074E3,4.24607E3,2.4070057E4,2.3941305E4,7.15194E4,1.1648606E4,8.292649E3,3.866857E3,2.4930957E2,6.6315806E3,6.564936E2,2.8821538E3,1.3639159E3,2.2949945E4,1.1201119E3,1.0600485E3,2.2881256E4,1.7965291E4,5.355411E4,5.163616E3,6.48499E3,6.1637954E3,2.1288545E3,3.352265E1,3.8333342E3,2.1091656E2,3.839301E1,4.6568488E2,6.1658955E3,4.3677963E2,2.1971397E2,6.9274963E2,2.189404E3,4.684705E2,8.954454E2,5.738367E3,1.7211578E4,4.6118965E1,1.0739929E3,5.1240497E2,5.476435E2,1.5159221E3,2.1365334E4,4.6188394E3,1.3346452E4,2.1920125E4,3.1633986E4,2.8827688E3,2.2808474E3,5.438752E3,1.0462385E3,2.5148682E3,3.648927E3,1.396021E3,7.328335E2],"tree_param":{"num_deleted":"0","num_feature":"30","num_nodes":"63","size_leaf_vector":"1"}},{"base_weights":[-1.5710422E-3,-4.9883232E-1,1.694171E-1,-7.44213E-1,-3.2442483E-1,8.100191E-2,6.003818E-1,-9.974502E-1,-6.4374757E-1,-4.236673E-1,-1.5780161E-1,3.64415E-1,-1.6810039E-2,4.4435394E-1,8.1924605E-1,-1.0383068E0,-1.8077062E-1,-2.2053708E-1,-6.8329036E-1,-1.2934068E-1,-4.9924538E-1,-2.0866117E-1,2.25467E-1,8.7876594E-1,3.3916804E-1,-1.8997283E-1,5.708944E-2,2.3455901E-1,5.4272383E-1,9.4600886E-1,4.6548542E-1,-5.4602712E-2,-3.9674643E-2,2.5812501E-2,-3.8044676E-2,-2.2739843E-3,-2.5527885E-2,-3.7475687E-2,-2.589961E-2,-3.6779647E-3,-3.287417E-2,-2.5740836E-2,2.3895795E-2,-2.2825543E-2,-6.399429E-3,4.1485406E-3,2.330608E-2,2.1139687E-2,5.436343E-2,1.563328E-2,3.694613E-2,-1.3015336E-2,2.6017616E-3,-9.784208E-3,5.7132407E-3,2.8538972E-3,1.9583253E-2,3.0504001E-2,7.2367447E-3,5.4950286E-2,4.4075266E-2,9.024234E-3,2.6816024E-2],"categories":[],"categories_nodes":[],"categories_segments":[],"categories_sizes":[],"default_left":[0,0,0,0,0,0,0,0,0,0,0,0,0,0,0,0,0,0,0,0,0,0,0,0,0,0,0,0,0,0,0,0,0,0,0,0,0,0,0,0,0,0,0,0,0,0,0,0,0,0,0,0,0,0,0,0,0,0,0,0,0,0,0],"id":17,"left_children":[1,3,5,7,9,11,13,15,17,19,21,23,25,27,29,31,33,35,37,39,41,43,45,47,49,51,53,55,57,59,61,-1,-1,-1,-1,-1,-1,-1,-1,-1,-1,-1,-1,-1,-1,-1,-1,-1,-1,-1,-1,-1,-1,-1,-1,-1,-1,-1,-1,-1,-1,-1,-1],"loss_changes":[1.312807E4,1.690419E3,4.377758E3,4.1676465E2,3.8178345E2,2.6428708E3,6.674009E2,1.5517334E2,1.9646387E2,3.2182788E2,1.6813332E2,3.172246E2,9.070008E2,2.3548853E2,3.6438086E2,5.7333984E1,9.072687E1,5.1000935E1,1.1715039E2,8.704602E1,1.7546777E2,1.521142E2,3.4557774E1,1.08120056E2,2.4670898E2,3.6089752E2,7.1796094E2,1.0164256E2,2.0823267E2,5.795166E1,4.3218445E1,0E0,0E0,0E0,0E0,0E0,0E0,0E0,0E0,0E0,0E0,0E0,0E0,0E0,0E0,0E0,0E0,0E0,0E0,0E0,0E0,0E0,0E0,0E0,0E0,0E0,0E0,0E0,0E0,0E0,0E0,0E0,0E0],"parents":[2147483647,0,0,1,1,2,2,3,3,4,4,5,5,6,6,7,7,8,8,9,9,10,10,11,11,12,12,13,13,14,14,15,15,16,16,17,17,18,18,19,19,20,20,21,21,22,22,23,23,24,24,25,25,26,26,27,27,28,28,29,29,30,30],"right_children":[2,4,6,8,10,12,14,16,18,20,22,24,26,28,30,32,34,36,38,40,42,44,46,48,50,52,54,56,58,60,62,-1,-1,-1,-1,-1,-1,-1,-1,-1,-1,-1,-1,-1,-1,-1,-1,-1,-1,-1,-1,-1,-1,-1,-1,-1,-1,-1,-1,-1,-1,-1,-1],"split_conditions":[2.068006E0,1.3349591E0,5.102041E0,7.2011936E-1,9.861786E-1,-2.8985507E0,1.8627445E1,8.9285713E-1,-3.4146342E0,-3.0075188E0,3.785395E0,-4.3079596E0,-3.5185412E-1,4.2618475E0,1.1827957E1,1.428603E0,-1.8165733E-1,3.797266E-1,1.1625677E0,4.688526E-1,1.796875E1,-2.897135E-1,6.845742E-1,6.3455665E-1,1.4360426E1,1.369863E1,1.8575825E-1,7.142857E0,1.1827957E1,7.734262E-1,2.5E1,-5.4602712E-2,-3.9674643E-2,2.5812501E-2,-3.8044676E-2,-2.2739843E-3,-2.5527885E-2,-3.7475687E-2,-2.589961E-2,-3.6779647E-3,-3.287417E-2,-2.5740836E-2,2.3895795E-2,-2.2825543E-2,-6.399429E-3,4.1485406E-3,2.330608E-2,2.1139687E-2,5.436343E-2,1.563328E-2,3.694613E-2,-1.3015336E-2,2.6017616E-3,-9.784208E-3,5.7132407E-3,2.8538972E-3,1.9583253E-2,3.0504001E-2,7.2367447E-3,5.4950286E-2,4.4075266E-2,9.024234E-3,2.6816024E-2],"split_indices":[27,27,22,27,26,22,24,22,24,24,26,7,12,27,22,26,9,6,26,5,25,0,6,15,21,25,26,24,22,26,24,0,0,0,0,0,0,0,0,0,0,0,0,0,0,0,0,0,0,0,0,0,0,0,0,0,0,0,0,0,0,0,0],"split_type":[0,0,0,0,0,0,0,0,0,0,0,0,0,0,0,0,0,0,0,0,0,0,0,0,0,0,0,0,0,0,0,0,0,0,0,0,0,0,0,0,0,0,0,0,0,0,0,0,0,0,0,0,0,0,0,0,0,0,0,0,0,0,0],"sum_hessian":[1.5439869E5,3.950638E4,1.14892305E5,1.6411943E4,2.3094436E4,9.533511E4,1.9557191E4,4.658817E3,1.1753126E4,1.447239E4,8.622047E3,2.4459953E4,7.087516E4,1.1419641E4,8.137551E3,4.436476E3,2.223409E2,1.0050961E3,1.0748029E4,2.9577886E3,1.1514601E4,7.6125776E3,1.00946893E3,1.1426749E3,2.331728E4,2.11996E4,4.967556E4,3.64669E3,7.7729507E3,5.989412E3,2.1481384E3,3.6346428E3,8.0183325E2,1.0096666E2,1.2137423E2,6.2771E2,3.7738614E2,7.6707573E3,3.0772725E3,2.676437E3,2.8135135E2,1.1334557E4,1.8004388E2,1.8679117E3,5.744666E3,6.351467E2,3.7432224E2,3.5965558E2,7.830194E2,2.1869436E4,1.4478435E3,1.6426086E4,4.773513E3,9.162735E3,4.0512824E4,1.7132494E3,1.9334407E3,6.647187E3,1.1257635E3,1.7710492E3,4.218363E3,4.2861002E2,1.7195283E3],"tree_param":{"num_deleted":"0","num_feature":"30","num_nodes":"63","size_leaf_vector":"1"}},{"base_weights":[1.2795265E-3,-3.1907853E-1,2.4170545E-1,-6.88919E-1,-1.8155445E-1,1.8787959E-1,6.819993E-1,-8.960372E-1,-5.509263E-1,6.946035E-2,-2.3202235E-1,3.85224E-1,1.03035964E-1,7.62917E-1,4.7458684E-1,-9.658028E-1,-4.3678075E-1,-6.537972E-1,-3.3066025E-1,-2.9941367E-2,2.946516E-1,-2.8230405E-1,1.18514314E-1,4.0381405E-1,-8.829179E-1,-1.6845815E-2,2.798447E-1,6.449668E-1,9.2678803E-1,-2.3620047E-1,5.089042E-1,-5.5220455E-2,-4.447184E-2,-2.7641226E-2,3.4768313E-2,-3.3066433E-2,8.187248E-2,1.687661E-2,-1.8379645E-2,-6.4053666E-4,-6.001243E-2,1.621338E-3,2.7283961E-2,-2.4016548E-2,-1.1360296E-2,-2.796434E-3,1.534631E-2,1.3483551E-2,2.5082115E-2,3.300202E-2,-5.302083E-2,-2.7894458E-2,1.0444358E-3,9.475377E-3,1.9863017E-2,3.5769876E-2,1.6954089E-2,5.1657747E-2,3.923143E-2,-4.552114E-2,1.842451E-2,1.597897E-2,3.0106885E-2],"categories":[],"categories_nodes":[],"categories_segments":[],"categories_sizes":[],"default_left":[0,0,0,0,0,0,0,0,0,0,0,0,0,0,0,0,0,0,0,0,0,0,0,0,0,0,0,0,0,0,0,0,0,0,0,0,0,0,0,0,0,0,0,0,0,0,0,0,0,0,0,0,0,0,0,0,0,0,0,0,0,0,0],"id":18,"left_children":[1,3,5,7,9,11,13,15,17,19,21,23,25,27,29,31,33,35,37,39,41,43,45,47,49,51,53,55,57,59,61,-1,-1,-1,-1,-1,-1,-1,-1,-1,-1,-1,-1,-1,-1,-1,-1,-1,-1,-1,-1,-1,-1,-1,-1,-1,-1,-1,-1,-1,-1,-1,-1],"loss_changes":[1.1863963E4,3.3586392E3,2.0851758E3,5.109463E2,6.0987866E2,1.3127683E3,1.6038037E2,2.2869482E2,2.4316333E2,1.8043163E2,7.065178E2,5.560703E2,1.1623625E3,1.3247632E2,6.583411E1,6.455615E1,1.2460509E2,1.2735742E2,8.4603E1,1.1196564E2,1.624056E2,3.8229492E2,1.653193E2,3.0469434E2,9.408328E1,6.6725946E2,2.3489563E2,8.607898E1,4.2590088E1,5.1179085E1,4.506781E1,0E0,0E0,0E0,0E0,0E0,0E0,0E0,0E0,0E0,0E0,0E0,0E0,0E0,0E0,0E0,0E0,0E0,0E0,0E0,0E0,0E0,0E0,0E0,0E0,0E0,0E0,0E0,0E0,0E0,0E0,0E0,0E0],"parents":[2147483647,0,0,1,1,2,2,3,3,4,4,5,5,6,6,7,7,8,8,9,9,10,10,11,11,12,12,13,13,14,14,15,15,16,16,17,17,18,18,19,19,20,20,21,21,22,22,23,23,24,24,25,25,26,26,27,27,28,28,29,29,30,30],"right_children":[2,4,6,8,10,12,14,16,18,20,22,24,26,28,30,32,34,36,38,40,42,44,46,48,50,52,54,56,58,60,62,-1,-1,-1,-1,-1,-1,-1,-1,-1,-1,-1,-1,-1,-1,-1,-1,-1,-1,-1,-1,-1,-1,-1,-1,-1,-1,-1,-1,-1,-1,-1,-1],"split_conditions":[2.9473476E0,1.3966931E0,1.7241379E1,9.151698E-1,-3.508772E0,-5.6603775E0,8.069055E0,9.6153843E-1,1.1277668E0,7.934479E-1,4.5454545E0,7.2604384E0,8.020292E-1,5.2941177E1,4.117647E0,3.617693E-1,4.518176E0,8.786611E0,-5.4054055E0,5.6239333E0,1.715E1,-6.1864924E-1,7.8125E0,-3.8508423E-2,-1.7640805E0,2.6664445E-2,7.142857E0,5.7713594E0,1.5595162E0,2.4619254E-1,2.7272728E1,-5.5220455E-2,-4.447184E-2,-2.7641226E-2,3.4768313E-2,-3.3066433E-2,8.187248E-2,1.687661E-2,-1.8379645E-2,-6.4053666E-4,-6.001243E-2,1.621338E-3,2.7283961E-2,-2.4016548E-2,-1.1360296E-2,-2.796434E-3,1.534631E-2,1.3483551E-2,2.5082115E-2,3.300202E-2,-5.302083E-2,-2.7894458E-2,1.0444358E-3,9.475377E-3,1.9863017E-2,3.5769876E-2,1.6954089E-2,5.1657747E-2,3.923143E-2,-4.552114E-2,1.842451E-2,1.597897E-2,3.0106885E-2],"split_indices":[27,27,23,27,23,24,27,23,26,13,23,7,26,25,24,27,26,24,24,7,3,12,25,12,2,26,24,26,26,17,23,0,0,0,0,0,0,0,0,0,0,0,0,0,0,0,0,0,0,0,0,0,0,0,0,0,0,0,0,0,0,0,0],"split_type":[0,0,0,0,0,0,0,0,0,0,0,0,0,0,0,0,0,0,0,0,0,0,0,0,0,0,0,0,0,0,0,0,0,0,0,0,0,0,0,0,0,0,0,0,0,0,0,0,0,0,0,0,0,0,0,0,0,0,0,0,0,0,0],"sum_hessian":[1.5403075E5,6.603756E4,8.799319E4,1.7898578E4,4.8138984E4,7.840932E4,9.583873E3,7.154264E3,1.0744314E4,8.0580215E3,4.008096E4,2.3573395E4,5.483592E4,6.8919585E3,2.6919143E3,6.209638E3,9.44626E2,7.3222026E3,3.4221118E3,5.590667E3,2.4673545E3,3.505332E4,5.027641E3,2.3233568E4,3.398269E2,3.2678936E4,2.2156986E4,4.0107039E3,2.881255E3,1.235767E2,2.5683374E3,2.2006416E3,4.0089966E3,8.5734875E2,8.727719E1,7.2989653E3,2.3237053E1,1.7867331E2,3.2434385E3,5.5110938E3,7.957347E1,1.2075101E3,1.2598444E3,7.6280366E3,2.7425283E4,2.610685E3,2.416956E3,9.800209E3,1.343336E4,3.4721176E1,3.051057E2,2.1298396E3,3.0549096E4,1.2524422E4,9.632565E3,3.2587122E3,7.519916E2,1.6441179E3,1.237137E3,5.8268185E1,6.530851E1,8.492682E2,1.7190693E3],"tree_param":{"num_deleted":"0","num_feature":"30","num_nodes":"63","size_leaf_vector":"1"}},{"base_weights":[5.8856574E-3,-2.9925236E-1,2.3460871E-1,-6.4081955E-1,-1.6138884E-1,1.8496595E-1,6.51147E-1,-8.628585E-1,-5.104189E-1,5.3221248E-2,-2.1993512E-1,3.9630076E-1,1.1174513E-1,7.2068906E-1,3.9841294E-1,-9.3140393E-1,-4.732471E-1,-5.5888027E-1,-2.337793E-1,-1.2127292E-1,1.9378357E-1,-2.8137237E-1,6.391296E-2,1.5519662E-1,4.7612157E-1,-4.8784792E-2,2.2155179E-1,8.047335E-1,5.0088227E-1,1.1786398E-1,5.068759E-1,-2.8421713E-2,-4.832119E-2,-2.6655672E-2,5.1319268E-2,-1.2773039E-2,-3.088957E-2,-2.613818E-2,-2.893986E-3,-1.2855225E-3,-1.6942969E-2,6.885948E-2,8.447785E-3,-2.7956236E-2,-1.2196056E-2,-3.1512335E-3,1.3995928E-2,-8.0867454E-2,9.129355E-3,2.174994E-2,3.6236398E-2,-2.6634488E-2,-4.1518593E-4,8.659997E-3,2.282358E-2,3.3698253E-2,4.705244E-2,1.4498556E-2,3.3716347E-2,8.201192E-3,-5.0357588E-2,3.242995E-2,1.8907364E-2],"categories":[],"categories_nodes":[],"categories_segments":[],"categories_sizes":[],"default_left":[0,0,0,0,0,0,0,0,0,0,0,0,0,0,0,0,0,0,0,0,0,0,0,0,0,0,0,0,0,0,0,0,0,0,0,0,0,0,0,0,0,0,0,0,0,0,0,0,0,0,0,0,0,0,0,0,0,0,0,0,0,0,0],"id":19,"left_children":[1,3,5,7,9,11,13,15,17,19,21,23,25,27,29,31,33,35,37,39,41,43,45,47,49,51,53,55,57,59,61,-1,-1,-1,-1,-1,-1,-1,-1,-1,-1,-1,-1,-1,-1,-1,-1,-1,-1,-1,-1,-1,-1,-1,-1,-1,-1,-1,-1,-1,-1,-1,-1],"loss_changes":[1.0718189E4,3.098103E3,1.8148735E3,5.4721484E2,5.8902136E2,1.2135713E3,1.63875E2,1.863169E2,1.5962134E2,2.4647427E2,6.42319E2,3.8825098E2,1.0268501E3,1.3484521E2,6.132675E1,7.49292E1,9.469971E1,1.8107422E2,9.035212E1,9.317205E1,1.6313908E2,3.147356E2,1.7974008E2,2.439385E2,1.5456421E2,4.634468E2,3.9277527E2,9.366846E1,7.3966736E1,2.9401148E1,2.6211487E1,0E0,0E0,0E0,0E0,0E0,0E0,0E0,0E0,0E0,0E0,0E0,0E0,0E0,0E0,0E0,0E0,0E0,0E0,0E0,0E0,0E0,0E0,0E0,0E0,0E0,0E0,0E0,0E0,0E0,0E0,0E0,0E0],"parents":[2147483647,0,0,1,1,2,2,3,3,4,4,5,5,6,6,7,7,8,8,9,9,10,10,11,11,12,12,13,13,14,14,15,15,16,16,17,17,18,18,19,19,20,20,21,21,22,22,23,23,24,24,25,25,26,26,27,27,28,28,29,29,30,30],"right_children":[2,4,6,8,10,12,14,16,18,20,22,24,26,28,30,32,34,36,38,40,42,44,46,48,50,52,54,56,58,60,62,-1,-1,-1,-1,-1,-1,-1,-1,-1,-1,-1,-1,-1,-1,-1,-1,-1,-1,-1,-1,-1,-1,-1,-1,-1,-1,-1,-1,-1,-1,-1,-1],"split_conditions":[2.9473476E0,1.4417241E0,1.7241379E1,9.151698E-1,-2.877698E0,-7.03125E0,4.2394495E0,8.5470086E-1,1.8867924E0,-2.3119055E-2,4.5454545E0,-3.1161946E-1,4.6944377E-1,8.069055E0,2.3643412E1,-3.9473684E0,9.886107E0,-2.9411764E0,1.3333334E0,-3.2786884E0,-2.1746766E-2,-8.4397787E-1,6.3636365E0,-4.504206E0,1.158222E0,1.5252845E-2,3.1034483E1,3.3333332E1,3E1,2.473133E0,6.460873E0,-2.8421713E-2,-4.832119E-2,-2.6655672E-2,5.1319268E-2,-1.2773039E-2,-3.088957E-2,-2.613818E-2,-2.893986E-3,-1.2855225E-3,-1.6942969E-2,6.885948E-2,8.447785E-3,-2.7956236E-2,-1.2196056E-2,-3.1512335E-3,1.3995928E-2,-8.0867454E-2,9.129355E-3,2.174994E-2,3.6236398E-2,-2.6634488E-2,-4.1518593E-4,8.659997E-3,2.282358E-2,3.3698253E-2,4.705244E-2,1.4498556E-2,3.3716347E-2,8.201192E-3,-5.0357588E-2,3.242995E-2,1.8907364E-2],"split_indices":[27,27,23,27,23,24,26,23,23,12,24,2,26,27,25,25,26,24,25,25,12,16,23,6,15,26,25,24,23,6,27,0,0,0,0,0,0,0,0,0,0,0,0,0,0,0,0,0,0,0,0,0,0,0,0,0,0,0,0,0,0,0,0],"split_type":[0,0,0,0,0,0,0,0,0,0,0,0,0,0,0,0,0,0,0,0,0,0,0,0,0,0,0,0,0,0,0,0,0,0,0,0,0,0,0,0,0,0,0,0,0,0,0,0,0,0,0,0,0,0,0,0,0,0,0,0,0,0,0],"sum_hessian":[1.5357122E5,6.579447E4,8.777674E4,1.8918383E4,4.6876086E4,7.843106E4,9.345677E3,6.9973345E3,1.1921049E4,1.0046721E4,3.6829363E4,2.0180111E4,5.8250953E4,7.3272666E3,2.0184103E3,5.9490527E3,1.0482816E3,1.0142854E4,1.7781952E3,4.482084E3,5.564637E3,3.0276543E4,6.55282E3,5.020263E3,1.5159849E4,2.366052E4,3.4590434E4,5.29831E3,2.0289568E3,5.63605E2,1.4548053E3,5.252363E2,5.4238164E3,1.0087239E3,3.9557735E1,1.6502635E3,8.49259E3,6.7186005E2,1.1063352E3,3.1153997E3,1.3666843E3,1.1314503E2,5.451492E3,3.5953691E3,2.6681174E4,4.1275015E3,2.425318E3,7.545681E1,4.9448066E3,1.3010836E4,2.1490125E3,1.8253938E3,2.1835125E4,2.868796E4,5.902474E3,2.70758E3,2.5907297E3,9.170542E2,1.1119026E3,5.422974E2,2.1307598E1,6.9016095E2,7.646444E2],"tree_param":{"num_deleted":"0","num_feature":"30","num_nodes":"63","size_leaf_vector":"1"}},{"base_weights":[-3.1573334E-4,-8.347474E-2,5.2585083E-1,3.1208482E-1,-1.8018457E-1,3.9330176E-1,7.84454E-1,4.6472797E-1,2.3243193E-1,1.1809338E-1,-2.367925E-1,7.133624E-1,3.2201892E-1,8.712261E-1,4.494471E-1,4.8196417E-1,-1.3001684E0,3.2094884E-1,1.2948586E-1,-2.0923647E-1,2.168416E-1,-3.3629897E-1,2.0011531E-2,1.0827383E0,6.32048E-1,2.0079072E-1,5.466531E-1,5.929002E-1,9.268213E-1,1.4272921E-1,5.824691E-1,-1.9179277E-2,2.5694732E-2,-7.5844224E-3,-7.5466625E-2,1.8220268E-2,3.0787052E-3,-1.33494E-3,1.01529015E-2,-1.5880076E-2,2.302571E-3,6.096883E-3,2.5975069E-2,-5.3527136E-3,-1.9765152E-2,-2.5830602E-3,1.0971547E-2,5.566881E-2,2.651213E-2,3.497966E-2,1.5460625E-2,-9.930588E-3,1.2836619E-2,3.365618E-2,9.154875E-3,1.3293105E-2,3.6608618E-2,4.276727E-2,5.2206755E-2,9.352601E-3,-7.20599E-2,3.294128E-2,1.0438534E-2],"categories":[],"categories_nodes":[],"categories_segments":[],"categories_sizes":[],"default_left":[0,0,0,0,0,0,0,0,0,0,0,0,0,0,0,0,0,0,0,0,0,0,0,0,0,0,0,0,0,0,0,0,0,0,0,0,0,0,0,0,0,0,0,0,0,0,0,0,0,0,0,0,0,0,0,0,0,0,0,0,0,0,0],"id":20,"left_children":[1,3,5,7,9,11,13,15,17,19,21,23,25,27,29,31,33,35,37,39,41,43,45,47,49,51,53,55,57,59,61,-1,-1,-1,-1,-1,-1,-1,-1,-1,-1,-1,-1,-1,-1,-1,-1,-1,-1,-1,-1,-1,-1,-1,-1,-1,-1,-1,-1,-1,-1,-1,-1],"loss_changes":[6.6860103E3,5.047752E3,7.1440674E2,3.150039E2,1.7903269E3,3.1427515E2,2.0486719E2,2.7089893E2,1.5515784E2,5.4673175E2,2.2772998E3,7.455432E1,3.069912E2,8.611621E1,5.9245148E1,2.4347925E2,2.0304733E1,1.0317078E2,9.055344E1,1.08487564E2,3.7310754E2,8.687002E2,3.557539E2,6.885559E0,4.461035E1,1.6379007E2,1.8154028E2,4.239279E1,3.8112793E1,3.1171734E1,2.8736053E1,0E0,0E0,0E0,0E0,0E0,0E0,0E0,0E0,0E0,0E0,0E0,0E0,0E0,0E0,0E0,0E0,0E0,0E0,0E0,0E0,0E0,0E0,0E0,0E0,0E0,0E0,0E0,0E0,0E0,0E0,0E0,0E0],"parents":[2147483647,0,0,1,1,2,2,3,3,4,4,5,5,6,6,7,7,8,8,9,9,10,10,11,11,12,12,13,13,14,14,15,15,16,16,17,17,18,18,19,19,20,20,21,21,22,22,23,23,24,24,25,25,26,26,27,27,28,28,29,29,30,30],"right_children":[2,4,6,8,10,12,14,16,18,20,22,24,26,28,30,32,34,36,38,40,42,44,46,48,50,52,54,56,58,60,62,-1,-1,-1,-1,-1,-1,-1,-1,-1,-1,-1,-1,-1,-1,-1,-1,-1,-1,-1,-1,-1,-1,-1,-1,-1,-1,-1,-1,-1,-1,-1,-1],"split_conditions":[4.6153846E0,-2.8985507E0,3.4375E1,-9.917356E0,-1.1029411E1,-1.5384615E1,1.1827957E1,9.719201E0,-4.516129E0,-3.653672E-1,7.142857E0,-4.8780487E1,1.2962963E1,6.6666665E0,1.920904E1,-6E1,-2.8093645E1,2.63722E0,-2.8220275E-1,2.9766006E-2,2.06E1,-2.9411764E0,1.5037594E0,2.4793388E1,2.238E1,-8.4397787E-1,1.1827957E1,1.0769231E1,1E2,1.1735047E0,1.16E2,-1.9179277E-2,2.5694732E-2,-7.5844224E-3,-7.5466625E-2,1.8220268E-2,3.0787052E-3,-1.33494E-3,1.01529015E-2,-1.5880076E-2,2.302571E-3,6.096883E-3,2.5975069E-2,-5.3527136E-3,-1.9765152E-2,-2.5830602E-3,1.0971547E-2,5.566881E-2,2.651213E-2,3.497966E-2,1.5460625E-2,-9.930588E-3,1.2836619E-2,3.365618E-2,9.154875E-3,1.3293105E-2,3.6608618E-2,4.276727E-2,5.2206755E-2,9.352601E-3,-7.20599E-2,3.294128E-2,1.0438534E-2],"split_indices":[22,22,25,24,25,25,22,7,22,16,25,25,24,22,22,25,24,26,12,17,3,24,22,22,3,16,22,24,25,15,25,0,0,0,0,0,0,0,0,0,0,0,0,0,0,0,0,0,0,0,0,0,0,0,0,0,0,0,0,0,0,0,0],"split_type":[0,0,0,0,0,0,0,0,0,0,0,0,0,0,0,0,0,0,0,0,0,0,0,0,0,0,0,0,0,0,0,0,0,0,0,0,0,0,0,0,0,0,0,0,0,0,0,0,0,0,0,0,0,0,0,0,0,0,0,0,0,0,0],"sum_hessian":[1.5280294E5,1.3194972E5,2.0853217E4,2.5921822E4,1.060279E5,1.3788646E4,7.0645693E3,8.886347E3,1.7035477E4,1.691208E4,8.911582E4,2.5096929E3,1.1278954E4,5.609676E3,1.4548938E3,8.801177E3,8.516983E1,9.157996E3,7.877479E3,3.9190645E3,1.2993017E4,6.422859E4,2.4887229E4,4.5035956E2,2.0593333E3,7.327088E3,3.951866E3,9.3620764E2,4.673468E3,4.4096216E2,1.0139316E3,3.1262402E2,8.488553E3,1.3461058E1,7.170877E1,7.8431396E3,1.3148567E3,2.5222756E3,5.3552036E3,2.7513247E3,1.1677396E3,9.892724E3,3.1002922E3,1.3148405E4,5.1080184E4,1.830759E4,6.579637E3,4.2556436E2,2.4795193E1,1.7017982E3,3.575351E2,8.996423E2,6.4274453E3,2.9310957E3,1.02077014E3,2.8069885E2,6.555088E2,2.9097732E3,1.7636947E3,4.29878E2,1.1084177E1,8.410518E2,1.7287976E2],"tree_param":{"num_deleted":"0","num_feature":"30","num_nodes":"63","size_leaf_vector":"1"}},{"base_weights":[-1.7622432E-3,-4.1143677E-1,1.474722E-1,-7.105218E-1,-2.7833316E-1,6.925771E-2,5.35173E-1,-9.3704414E-1,-6.143772E-1,9.703344E-2,-3.1346312E-1,3.0636477E-1,-1.2186299E-2,4.236517E-1,7.9408544E-1,-9.626697E-1,3.742622E-1,-6.8762845E-1,-3.448646E-1,-3.4439467E-2,5.390072E-1,-3.9891046E-1,-1.6233109E-1,2.48992E-1,4.96664E-1,-1.7082542E-1,5.5487942E-2,8.9668465E-1,3.8145998E-1,8.8623214E-1,4.2928874E-1,-4.9621772E-2,-8.469071E-3,-5.1716357E-2,5.267773E-2,-4.528704E-2,-3.1101285E-2,-3.912147E-2,-1.2558526E-2,7.149814E-2,-3.1613663E-3,1.5825992E-2,4.650875E-2,-5.269138E-3,-2.2563552E-2,-1.0237804E-2,1.4255327E-2,8.606159E-3,1.7423032E-2,1.8067433E-2,4.20923E-2,-7.434728E-3,-4.1555416E-2,2.1221086E-3,4.957735E-2,4.7923412E-2,7.381402E-3,1.3415359E-2,2.7755514E-2,5.4086216E-2,4.1380446E-2,6.107684E-3,2.7796153E-2],"categories":[],"categories_nodes":[],"categories_segments":[],"categories_sizes":[],"default_left":[0,0,0,0,0,0,0,0,0,0,0,0,0,0,0,0,0,0,0,0,0,0,0,0,0,0,0,0,0,0,0,0,0,0,0,0,0,0,0,0,0,0,0,0,0,0,0,0,0,0,0,0,0,0,0,0,0,0,0,0,0,0,0],"id":21,"left_children":[1,3,5,7,9,11,13,15,17,19,21,23,25,27,29,31,33,35,37,39,41,43,45,47,49,51,53,55,57,59,61,-1,-1,-1,-1,-1,-1,-1,-1,-1,-1,-1,-1,-1,-1,-1,-1,-1,-1,-1,-1,-1,-1,-1,-1,-1,-1,-1,-1,-1,-1,-1,-1],"loss_changes":[9.292129E3,1.6152529E3,3.3781157E3,2.714502E2,3.704082E2,1.7902385E3,5.395322E2,1.2547705E2,1.7293286E2,1.3976419E2,3.3154077E2,2.5858057E2,7.408235E2,2.6045508E2,1.88698E2,8.591797E1,6.996477E1,9.801221E1,7.6691864E1,7.8098724E1,4.7570267E1,2.5203857E2,1.7617274E2,1.3915222E2,2.5596387E2,3.0130438E2,5.905243E2,4.9251465E1,2.3565527E2,5.0399414E1,4.4096252E1,0E0,0E0,0E0,0E0,0E0,0E0,0E0,0E0,0E0,0E0,0E0,0E0,0E0,0E0,0E0,0E0,0E0,0E0,0E0,0E0,0E0,0E0,0E0,0E0,0E0,0E0,0E0,0E0,0E0,0E0,0E0,0E0],"parents":[2147483647,0,0,1,1,2,2,3,3,4,4,5,5,6,6,7,7,8,8,9,9,10,10,11,11,12,12,13,13,14,14,15,15,16,16,17,17,18,18,19,19,20,20,21,21,22,22,23,23,24,24,25,25,26,26,27,27,28,28,29,29,30,30],"right_children":[2,4,6,8,10,12,14,16,18,20,22,24,26,28,30,32,34,36,38,40,42,44,46,48,50,52,54,56,58,60,62,-1,-1,-1,-1,-1,-1,-1,-1,-1,-1,-1,-1,-1,-1,-1,-1,-1,-1,-1,-1,-1,-1,-1,-1,-1,-1,-1,-1,-1,-1,-1,-1],"split_conditions":[2.1305022E0,1.2094874E0,5.102041E0,6.5571856E-1,-5.4054055E0,-2.8985507E0,4.3065693E1,1.262651E1,1.4691226E0,1.0275232E0,9.861786E-1,6.846468E0,-3.5185412E-1,-3.038674E1,1.1827957E1,8.9285713E-1,2.2439267E-2,-5.843336E-1,-9.541515E-1,-1.4939443E1,1.0507685E0,-1.4705882E0,4.518176E0,2.1906199E-1,1.1389157E0,7.43123E-1,3.264E1,2.0799003E0,1.2962963E1,4.7468433E-1,1.920904E1,-4.9621772E-2,-8.469071E-3,-5.1716357E-2,5.267773E-2,-4.528704E-2,-3.1101285E-2,-3.912147E-2,-1.2558526E-2,7.149814E-2,-3.1613663E-3,1.5825992E-2,4.650875E-2,-5.269138E-3,-2.2563552E-2,-1.0237804E-2,1.4255327E-2,8.606159E-3,1.7423032E-2,1.8067433E-2,4.20923E-2,-7.434728E-3,-4.1555416E-2,2.1221086E-3,4.957735E-2,4.7923412E-2,7.381402E-3,1.3415359E-2,2.7755514E-2,5.4086216E-2,4.1380446E-2,6.107684E-3,2.7796153E-2],"split_indices":[27,27,22,27,24,22,25,26,26,9,26,21,12,25,22,22,11,12,19,4,15,22,26,17,15,0,3,6,24,26,22,0,0,0,0,0,0,0,0,0,0,0,0,0,0,0,0,0,0,0,0,0,0,0,0,0,0,0,0,0,0,0,0],"split_type":[0,0,0,0,0,0,0,0,0,0,0,0,0,0,0,0,0,0,0,0,0,0,0,0,0,0,0,0,0,0,0,0,0,0,0,0,0,0,0,0,0,0,0,0,0,0,0,0,0,0,0,0,0,0,0,0,0,0,0,0,0,0,0],"sum_hessian":[1.5198483E5,4.0581223E4,1.114036E5,1.2496464E4,2.808476E4,9.2703164E4,1.870044E4,3.7206382E3,8.775825E3,2.4030784E3,2.5681682E4,2.3701041E4,6.900212E4,1.3072672E4,5.627766E3,3.6496587E3,7.097948E1,6.898852E3,1.8769734E3,1.8526659E3,5.504124E2,1.6404547E4,9.277134E3,1.8212916E4,5.488126E3,2.0633615E4,4.8368504E4,1.0686674E3,1.2004005E4,4.491517E3,1.136249E3,3.5173054E3,1.323533E2,2.2875233E1,4.8104248E1,1.5918921E3,5.30696E3,3.2954294E2,1.5474305E3,3.4712997E1,1.817953E3,3.5217056E2,1.9824184E2,2.4840676E3,1.3920479E4,8.47438E3,8.027545E2,1.0275672E4,7.937244E3,3.944265E3,1.543861E3,1.9965795E4,6.678218E2,4.7704797E4,6.637053E2,9.868565E2,8.18109E1,7.2699385E3,4.7340664E3,1.0317533E3,3.459764E3,3.3251974E2,8.037293E2],"tree_param":{"num_deleted":"0","num_feature":"30","num_nodes":"63","size_leaf_vector":"1"}},{"base_weights":[1.8174627E-3,-3.6387742E-1,1.5507592E-1,-6.758629E-1,-2.4524455E-1,8.744288E-2,5.521789E-1,-8.8381445E-1,-5.6753355E-1,-3.4021002E-1,-8.689135E-2,3.697946E-1,3.2590862E-2,6.3111484E-1,2.6205358E-1,-9.240705E-1,-1.5025526E-1,-5.9926933E-1,-1.5199704E-1,-1.6026549E-2,-3.9323756E-1,-1.3437225E-1,1.8966302E-1,4.1599494E-1,6.178338E-2,-2.2740625E-1,6.877593E-2,4.8819923E-1,8.516427E-1,-1.4350872E-2,4.7262493E-1,-4.9195513E-2,-3.2850534E-2,2.0050293E-2,-2.8866345E-2,-1.3112296E-2,-3.2235656E-2,-9.901104E-3,7.9734854E-2,-1.09747825E-2,7.669055E-3,-3.747981E-2,-1.7840253E-2,-9.03232E-3,9.949031E-3,4.509228E-2,6.9601606E-3,4.5029383E-2,1.9500175E-2,-2.0340206E-2,6.5662228E-3,-7.371591E-3,-3.0167645E-2,1.3154703E-2,9.721314E-4,1.653484E-2,3.0623917E-2,4.7324456E-2,3.749584E-2,1.6402623E-3,-6.414024E-2,-1.6503105E-2,2.466611E-2],"categories":[],"categories_nodes":[],"categories_segments":[],"categories_sizes":[],"default_left":[0,0,0,0,0,0,0,0,0,0,0,0,0,0,0,0,0,0,0,0,0,0,0,0,0,0,0,0,0,0,0,0,0,0,0,0,0,0,0,0,0,0,0,0,0,0,0,0,0,0,0,0,0,0,0,0,0,0,0,0,0,0,0],"id":22,"left_children":[1,3,5,7,9,11,13,15,17,19,21,23,25,27,29,31,33,35,37,39,41,43,45,47,49,51,53,55,57,59,61,-1,-1,-1,-1,-1,-1,-1,-1,-1,-1,-1,-1,-1,-1,-1,-1,-1,-1,-1,-1,-1,-1,-1,-1,-1,-1,-1,-1,-1,-1,-1,-1],"loss_changes":[8.503964E3,1.6582319E3,2.8715444E3,2.7743115E2,4.8816626E2,1.4149496E3,3.560913E2,1.2454346E2,1.0690454E2,3.4883252E2,1.598651E2,2.1140906E2,7.197434E2,3.8493506E2,1.9386911E2,6.320337E1,5.2317307E1,1.1525903E2,4.6614647E1,9.842575E1,2.2606445E2,1.6030998E2,6.3875E1,1.6228369E2,6.3238434E1,2.8084662E2,6.437655E2,1.4502441E2,4.5509277E1,8.6342186E1,3.1584045E1,0E0,0E0,0E0,0E0,0E0,0E0,0E0,0E0,0E0,0E0,0E0,0E0,0E0,0E0,0E0,0E0,0E0,0E0,0E0,0E0,0E0,0E0,0E0,0E0,0E0,0E0,0E0,0E0,0E0,0E0,0E0,0E0],"parents":[2147483647,0,0,1,1,2,2,3,3,4,4,5,5,6,6,7,7,8,8,9,9,10,10,11,11,12,12,13,13,14,14,15,15,16,16,17,17,18,18,19,19,20,20,21,21,22,22,23,23,24,24,25,25,26,26,27,27,28,28,29,29,30,30],"right_children":[2,4,6,8,10,12,14,16,18,20,22,24,26,28,30,32,34,36,38,40,42,44,46,48,50,52,54,56,58,60,62,-1,-1,-1,-1,-1,-1,-1,-1,-1,-1,-1,-1,-1,-1,-1,-1,-1,-1,-1,-1,-1,-1,-1,-1,-1,-1,-1,-1,-1,-1,-1,-1],"split_conditions":[2.2576387E0,1.2094874E0,6.25E0,7.2011936E-1,9.861786E-1,-4.7058825E0,1.1827957E1,8.9285713E-1,1.6483479E0,-1.7391304E0,1.0741212E0,2.7242548E0,-8.4397787E-1,1.8627445E1,1.920904E1,1.428603E0,-1.8165733E-1,-2.7322397E0,9.95E0,1.4508486E-1,-1.0542517E0,3.785395E0,-1.1296881E0,-4.6279488E0,-2.8093645E1,4.8423544E-1,-5.6603775E0,5.1076384E0,1.5595162E0,1.4291162E0,4.6400854E-1,-4.9195513E-2,-3.2850534E-2,2.0050293E-2,-2.8866345E-2,-1.3112296E-2,-3.2235656E-2,-9.901104E-3,7.9734854E-2,-1.09747825E-2,7.669055E-3,-3.747981E-2,-1.7840253E-2,-9.03232E-3,9.949031E-3,4.509228E-2,6.9601606E-3,4.5029383E-2,1.9500175E-2,-2.0340206E-2,6.5662228E-3,-7.371591E-3,-3.0167645E-2,1.3154703E-2,9.721314E-4,1.653484E-2,3.0623917E-2,4.7324456E-2,3.749584E-2,1.6402623E-3,-6.414024E-2,-1.6503105E-2,2.466611E-2],"split_indices":[27,27,22,27,26,22,22,22,22,22,14,26,16,24,22,26,9,24,24,13,16,26,8,7,24,5,24,27,26,15,26,0,0,0,0,0,0,0,0,0,0,0,0,0,0,0,0,0,0,0,0,0,0,0,0,0,0,0,0,0,0,0,0],"split_type":[0,0,0,0,0,0,0,0,0,0,0,0,0,0,0,0,0,0,0,0,0,0,0,0,0,0,0,0,0,0,0,0,0,0,0,0,0,0,0,0,0,0,0,0,0,0,0,0,0,0,0,0,0,0,0,0,0,0,0,0,0,0,0],"sum_hessian":[1.5173069E5,4.4808848E4,1.06921836E5,1.2343051E4,3.2465797E4,9.136276E4,1.5559078E4,4.2248486E3,8.118202E3,2.0293732E4,1.2172065E4,1.4860503E4,7.650226E4,1.2230061E4,3.3290176E3,4.004685E3,2.2016385E2,7.5415483E3,5.7665375E2,2.853299E3,1.7440432E4,1.0389239E4,1.7828257E3,1.2921639E4,1.9388643E3,9.345425E3,6.7156836E4,7.423102E3,4.8069585E3,1.4396854E3,1.8893323E3,3.269119E3,7.355662E2,9.6032555E1,1.2413129E2,8.9713245E2,6.644416E3,5.627688E2,1.3884956E1,1.2964622E3,1.5568369E3,1.6155802E3,1.5824853E4,9.123522E3,1.2657174E3,1.1671222E2,1.6661135E3,6.5587134E2,1.2265768E4,2.4974223E2,1.6891221E3,7.707484E3,1.6379406E3,1.3596285E4,5.3560547E4,3.2759111E3,4.147191E3,2.4827896E3,2.324169E3,1.3889452E3,5.0740204E1,4.6994606E1,1.8423376E3],"tree_param":{"num_deleted":"0","num_feature":"30","num_nodes":"63","size_leaf_vector":"1"}},{"base_weights":[-2.704646E-3,-3.9682442E-1,1.3039707E-1,-7.473151E-1,-3.0006158E-1,5.8667704E-2,4.125834E-1,-8.281852E-1,-4.4071034E-1,9.830163E-2,-3.2969055E-1,2.600882E-1,-4.9361356E-2,2.9438308E-1,6.1141604E-1,-3.3531362E-1,-8.7687916E-1,-4.994989E-1,4.262183E-1,-1.6730005E-2,4.9959543E-1,-5.337299E-1,-2.7620894E-1,1.121782E-1,3.3995333E-1,-4.378936E-1,-1.4685695E-2,2.4162146E-1,4.920057E-1,7.182726E-1,4.8020557E-1,-2.8024439E-2,7.0027784E-3,-4.7096353E-2,-3.540157E-2,-2.73808E-2,1.1347755E-2,-3.7799783E-2,3.49935E-2,-1.5653305E-2,4.505131E-3,3.1726472E-2,-2.8375536E-2,-1.3361773E-2,-3.1490337E-2,-1.5551207E-2,1.1564322E-3,7.76706E-3,-3.0006638E-2,1.4723881E-2,4.5049634E-2,-4.8755906E-3,-2.765249E-2,-1.4137161E-2,1.0583012E-3,-3.2626733E-3,1.37565555E-2,2.811513E-2,1.1349069E-2,2.9376894E-2,4.390016E-2,1.56202605E-2,2.7303753E-2],"categories":[],"categories_nodes":[],"categories_segments":[],"categories_sizes":[],"default_left":[0,0,0,0,0,0,0,0,0,0,0,0,0,0,0,0,0,0,0,0,0,0,0,0,0,0,0,0,0,0,0,0,0,0,0,0,0,0,0,0,0,0,0,0,0,0,0,0,0,0,0,0,0,0,0,0,0,0,0,0,0,0,0],"id":23,"left_children":[1,3,5,7,9,11,13,15,17,19,21,23,25,27,29,31,33,35,37,39,41,43,45,47,49,51,53,55,57,59,61,-1,-1,-1,-1,-1,-1,-1,-1,-1,-1,-1,-1,-1,-1,-1,-1,-1,-1,-1,-1,-1,-1,-1,-1,-1,-1,-1,-1,-1,-1,-1,-1],"loss_changes":[7.92159E3,1.2926064E3,2.2848247E3,2.039956E2,3.527002E2,1.9585221E3,5.3741504E2,1.5617041E2,8.806671E1,9.555923E1,3.0323853E2,3.711001E2,7.892556E2,1.4944104E2,1.19111084E2,6.3107582E1,6.437451E1,5.659973E1,3.6075607E1,5.0980274E1,6.676725E1,1.4757837E2,2.2968909E2,3.3884787E2,5.201846E2,1.880268E2,5.169432E2,1.16538574E2,5.6106506E1,9.744385E1,4.209253E1,0E0,0E0,0E0,0E0,0E0,0E0,0E0,0E0,0E0,0E0,0E0,0E0,0E0,0E0,0E0,0E0,0E0,0E0,0E0,0E0,0E0,0E0,0E0,0E0,0E0,0E0,0E0,0E0,0E0,0E0,0E0,0E0],"parents":[2147483647,0,0,1,1,2,2,3,3,4,4,5,5,6,6,7,7,8,8,9,9,10,10,11,11,12,12,13,13,14,14,15,15,16,16,17,17,18,18,19,19,20,20,21,21,22,22,23,23,24,24,25,25,26,26,27,27,28,28,29,29,30,30],"right_children":[2,4,6,8,10,12,14,16,18,20,22,24,26,28,30,32,34,36,38,40,42,44,46,48,50,52,54,56,58,60,62,-1,-1,-1,-1,-1,-1,-1,-1,-1,-1,-1,-1,-1,-1,-1,-1,-1,-1,-1,-1,-1,-1,-1,-1,-1,-1,-1,-1,-1,-1,-1,-1],"split_conditions":[2.068006E0,1.017232E0,6.6666665E0,7.751931E-1,-5.5555553E0,-3.508772E0,3.2727272E1,-1.8181819E0,3.7209303E0,1.0124732E0,